{"layers":[{"out_depth":125,"out_sx":1,"out_sy":1,"layer_type":"input"},{"out_depth":80,"out_sx":1,"out_sy":1,"layer_type":"fc","num_inputs":125,"l1_decay_mul":0,"l2_decay_mul":1,"filters":[{"sx":1,"sy":1,"depth":125,"w":{"0":-0.33930699508093526,"1":-7.15366795829705e-55,"2":0.1001700071325127,"3":-0.7911460144218628,"4":1.1444495011108104e-53,"5":0.16759822072056735,"6":-0.8956849890135127,"7":-4.389816754430415e-54,"8":0.6771891626130914,"9":-1.4951371930582285,"10":1.0757838230803526e-53,"11":1.389833114309315,"12":-1.700294148406722,"13":-2.025033150284024e-54,"14":0.8201547310745105,"15":-1.5389420425880997,"16":2.0987091696850356e-53,"17":0.5837363327850129,"18":-0.7649798414234432,"19":-6.060990472165144e-54,"20":0.5752080608034577,"21":0.8809432979717942,"22":-6.345468139730966e-54,"23":-0.3600322726061705,"24":0.5373568107695489,"25":4.9777034258044487e-54,"26":-0.8464108642335401,"27":0.3873572823095621,"28":3.482167454834441e-55,"29":0.8527009029589,"30":0.4347863500951668,"31":-9.097683095128142e-54,"32":-0.8421205800535739,"33":0.2332799387909764,"34":-9.714333149949922e-54,"35":-1.288494429787263,"36":-1.255420243033382,"37":-9.623975044899684e-54,"38":0.988761325712921,"39":-1.250968413651903,"40":6.84262943163193e-54,"41":0.48131614451637184,"42":-1.4621799366277426,"43":1.3655421295740156e-53,"44":0.7465626600206573,"45":-1.6749657145389873,"46":3.8003225386356803e-54,"47":0.4866179162600704,"48":-1.4447602000139592,"49":2.437649936629658e-54,"50":0.4674816991111541,"51":0.04377498934861998,"52":-2.268103403882833e-54,"53":0.3400042927727704,"54":0.07155457399995385,"55":-2.5205393539440267e-54,"56":0.3672390583100663,"57":1.2002072213999895,"58":-0.00409742288273968,"59":4.9017474190857457e-54,"60":0.5416958458044819,"61":-0.39918682951388335,"62":-3.2670686434653595e-54,"63":1.1712669804703544,"64":-0.6297969279880322,"65":-2.720159442932395e-54,"66":0.38963896798875874,"67":-0.7838943337859882,"68":4.898357997982745e-54,"69":0.6587068775349775,"70":-0.6886527634804167,"71":3.3928460769066576e-54,"72":0.38797694889450696,"73":-0.16766101519718626,"74":9.197783484230089e-54,"75":0.3701534810520378,"76":0.6391961976791458,"77":3.32120234420195e-54,"78":0.054909218938391104,"79":0.549402968731809,"80":-1.1163886927241497e-53,"81":0.3622573669904615,"82":0.5488553340069999,"83":9.613467929610085e-54,"84":-0.08158485422432811,"85":0.2503929567363541,"86":-3.841493000798819e-54,"87":1.1293195484044136,"88":0.5323767810263412,"89":-6.339088749299399e-54,"90":-0.8843862389131741,"91":0.5438580644086123,"92":5.442944163692125e-54,"93":-0.7447677814591572,"94":-0.07753281192350285,"95":2.1823590756115047e-53,"96":0.36753141798303623,"97":-0.6043863998482149,"98":-1.813872623054379e-53,"99":0.6613073674585089,"100":-0.7089234793262169,"101":-1.1099410564413844e-53,"102":0.5815933357348425,"103":-0.676918885260705,"104":4.4645883373474436e-54,"105":0.563773875392672,"106":-0.5381758097994819,"107":1.3249795306715292e-53,"108":0.633897232556356,"109":-0.17473461788835914,"110":-6.431440218442789e-54,"111":0.5673041493328564,"112":-0.09498705664224884,"113":7.768689069991397e-54,"114":0.29659234399419065,"115":-0.7872041710350142,"116":-0.27372874835618144,"117":-0.29652076371008596,"118":-0.330974245763756,"119":-0.0509321089636058,"120":-0.29497811111773115,"121":-0.10671519708315391,"122":-0.2864719335936406,"123":-0.22896124379204616,"124":-0.26637658817013843}},{"sx":1,"sy":1,"depth":125,"w":{"0":-0.4603097571235523,"1":4.963132404180808e-54,"2":0.9023755379081033,"3":0.07247551834613167,"4":-1.284241270952719e-53,"5":0.3135403197598534,"6":-0.14281759707488115,"7":-6.976782044584786e-55,"8":-0.7290808727557556,"9":-0.40825531077613075,"10":1.6795588078157356e-54,"11":-0.1607636466076187,"12":0.10729075403453242,"13":-5.724104254922953e-54,"14":1.1158881121362163,"15":1.126719277562672,"16":1.0737657286324607e-53,"17":1.9345618596439234,"18":1.740254402028905,"19":1.8345472590048628e-53,"20":2.4260676646524146,"21":0.13690711612025663,"22":-1.0797478407546558e-53,"23":-0.4426409545326958,"24":0.15760179626799992,"25":-1.7803786374114232e-54,"26":-0.2413407927159411,"27":-0.09611392385089543,"28":-6.946727284639347e-54,"29":0.6212613701469136,"30":0.06357524119079642,"31":7.883918658399866e-54,"32":0.4412929070618521,"33":-0.6458400367541111,"34":9.944876983797207e-54,"35":-1.7762228439061583,"36":-0.46619086771640916,"37":-3.792850088444517e-54,"38":0.5738902480041438,"39":-0.710259861042178,"40":-1.2887550514007384e-53,"41":0.4614941737859312,"42":0.11179199014993432,"43":6.345501270497472e-54,"44":0.627977429993806,"45":0.7455873464738353,"46":-3.1869116932938936e-54,"47":-0.2912163189098523,"48":0.7841069025722861,"49":5.199805645569318e-54,"50":0.04575393723724575,"51":3.943129879201043,"52":1.8143935483007796e-54,"53":-0.5449654927218163,"54":1.9516298951033535,"55":3.420135880760412e-54,"56":0.4858131511305717,"57":-1.3307769427901266,"58":-0.15092197682228958,"59":5.0563431589741247e-54,"60":-0.03636194492996526,"61":0.2378377096485691,"62":1.59927792383284e-54,"63":-0.3136793220195055,"64":0.6480159500480643,"65":3.4404008603377606e-54,"66":-0.6793810711405762,"67":-0.007498791259423375,"68":-1.4700399666066614e-53,"69":0.2722509598537813,"70":0.4294228151840612,"71":6.188246724565593e-54,"72":0.8515369897781417,"73":0.746565363384525,"74":-3.5336880263012034e-54,"75":1.0481941769310155,"76":0.9334735051786127,"77":1.2846596710613146e-53,"78":0.5398864063382935,"79":-0.4402668093509703,"80":-1.5995137380007576e-54,"81":-0.9388439848477493,"82":-0.049420585602050045,"83":1.3670713784414532e-53,"84":-0.3457379567725987,"85":0.06387244461149122,"86":-8.175249737708338e-56,"87":0.38880951224216775,"88":0.28661217716862053,"89":-1.7402767664972388e-53,"90":0.5834298396615675,"91":-0.5137885390374102,"92":5.472995786809683e-54,"93":-0.8970643527243841,"94":0.1734104055660479,"95":-1.7075651163184246e-53,"96":0.712753139513616,"97":-0.49446627996573633,"98":3.625825583303735e-54,"99":0.3874701326096301,"100":-0.06445527436854528,"101":-1.2879589998534513e-54,"102":0.5928188175029762,"103":0.4758982792599571,"104":-1.4654106656923997e-53,"105":0.4627543065635402,"106":0.6310533908896901,"107":1.8985356848193779e-53,"108":0.04043691832141298,"109":3.159434562406105,"110":-1.2281695361393633e-53,"111":0.004118875564466835,"112":1.5792178650042623,"113":-3.1191621091328863e-54,"114":0.710668325226411,"115":-0.16571554565953514,"116":-0.030754543520060382,"117":0.10874453717678918,"118":-0.03969789795539083,"119":-0.035276122288396376,"120":-0.046119342000036534,"121":0.04703302755938829,"122":-0.04062082147676954,"123":-0.003734491124851282,"124":-0.040145663202173075}},{"sx":1,"sy":1,"depth":125,"w":{"0":-0.4570676808012594,"1":2.5196338620418887e-55,"2":-0.09420657968247276,"3":0.9848524359925516,"4":4.3018733066868446e-54,"5":0.4625745906199251,"6":0.6237162124268562,"7":3.582118216189018e-54,"8":0.5658000819836609,"9":1.4759963139017809,"10":1.2794262174367782e-53,"11":1.8689525488182621,"12":1.1405286808848865,"13":9.76965585937722e-56,"14":0.08613152457913195,"15":2.454766786708253,"16":-6.220787913433948e-54,"17":0.31262298694688184,"18":1.832885909858753,"19":5.712301161895852e-54,"20":0.9992309952970603,"21":-0.5843956571375261,"22":-2.09740899759225e-54,"23":-0.47113065610781985,"24":0.015565672645296767,"25":-1.0966183782017877e-53,"26":-0.3632296763641392,"27":-0.27318765376500415,"28":-3.8570864515653255e-54,"29":0.6842450829823519,"30":-0.0199009974279318,"31":-3.8251257953408116e-54,"32":-0.06563134884728565,"33":-1.748673502058449,"34":9.996548110717928e-55,"35":0.06405056699803789,"36":-0.6803943944862266,"37":8.587721328371879e-54,"38":-0.2895203680368408,"39":-0.017706278454681753,"40":9.198963412984223e-54,"41":-0.7267099711654245,"42":-0.12612689261656118,"43":-4.284484566889354e-55,"44":-0.28049403175130927,"45":0.23854217158403884,"46":-6.784791542343026e-54,"47":-0.8751940957529819,"48":0.8579461211360858,"49":4.708557437842014e-54,"50":-1.023247638182057,"51":-1.2122900213699106,"52":-7.846187402636907e-54,"53":0.7086695291336459,"54":-1.1482449376694577,"55":-4.195573873231618e-54,"56":0.03847790134268796,"57":-0.531586118818789,"58":-1.3038127805042805,"59":2.1412066577320855e-53,"60":-0.5515287622300725,"61":-0.47706301230098497,"62":-1.2216501827758302e-53,"63":-0.3614670827208022,"64":-0.4098152857715303,"65":1.69839341120626e-53,"66":-0.3773848802894319,"67":-0.042998917987350456,"68":2.1381467626835193e-54,"69":0.775421170652297,"70":0.050449735199199174,"71":-6.3010961623489816e-55,"72":-0.020581408819547516,"73":-0.05668654794089912,"74":1.6505827126159338e-54,"75":0.6052145823216333,"76":-0.39563856132691555,"77":-1.5192806480696224e-53,"78":0.04515181310009792,"79":0.3533842117252442,"80":2.2824905763597018e-55,"81":-0.6747063220332976,"82":0.10727802566092481,"83":-2.5489019727943262e-54,"84":0.05668655812770189,"85":-0.15349135260352256,"86":-4.9433643263987875e-54,"87":-0.16761293964256918,"88":0.11367753395795963,"89":3.660515040773728e-54,"90":-0.33187604172786855,"91":-1.2269994220829779,"92":1.8915615580730344e-53,"93":0.48424869631927053,"94":-1.125235461993838,"95":6.149327350465151e-54,"96":-0.3309587520732277,"97":-0.7471556386985567,"98":-5.7704761535169726e-55,"99":-0.021012174042263035,"100":-0.5680189865745752,"101":9.381829075901031e-54,"102":0.3206897863700683,"103":-0.7853704348339614,"104":-5.786730823506728e-54,"105":0.4688498233914287,"106":-0.24372677471701076,"107":-1.1368031999313298e-53,"108":0.6085616396629577,"109":-0.9570564527277029,"110":7.043875667764009e-54,"111":0.17721852105929115,"112":-1.796451045075016,"113":-1.9000985783235104e-53,"114":0.366996693143352,"115":-0.3827282390240326,"116":0.19190369649660183,"117":0.1531065918325806,"118":0.2190943526084478,"119":0.15718249471445012,"120":0.01477379432720385,"121":0.17476711906930195,"122":0.1548773710292821,"123":0.18973411819978384,"124":0.2431106351849736}},{"sx":1,"sy":1,"depth":125,"w":{"0":-0.22456014198618438,"1":7.562753012735818e-54,"2":-0.014140029851046641,"3":0.8403928148838784,"4":2.092493793320597e-54,"5":-1.8385551728847864,"6":1.3876064704113518,"7":-7.060711964623754e-54,"8":-0.2664026391433558,"9":0.5722657955064308,"10":4.5912179684509497e-54,"11":0.24666930984178687,"12":0.2552653408486092,"13":3.485652974134738e-54,"14":-0.9666456630258947,"15":-0.8567190544485496,"16":7.461522484666061e-55,"17":0.5647595759088534,"18":-1.3628823385777382,"19":-1.299256371694554e-53,"20":-0.24731224645105765,"21":0.9522439188262919,"22":-1.147890420200403e-53,"23":-0.5309475238181739,"24":-0.23529315901122702,"25":-1.8487323899936832e-53,"26":-0.08005434135937958,"27":-0.12241844117736853,"28":1.0030043808752195e-53,"29":0.6759730668766398,"30":-0.7218279779331328,"31":1.3985648604796557e-53,"32":1.6558661622356843,"33":-0.3348760668547482,"34":-2.2110193759362656e-53,"35":-2.1984797015603714,"36":-0.05732217801410208,"37":3.4592497885284564e-54,"38":1.5556224590919476,"39":-0.03083948029729577,"40":-2.0612573268722557e-53,"41":0.5114044917935406,"42":0.006403428804496984,"43":7.147779858947813e-54,"44":0.3446924124602318,"45":0.11141680690746601,"46":-8.313618435019692e-54,"47":-0.4284086894414279,"48":0.3392244011624528,"49":-1.5180331369340443e-53,"50":1.010254828146742,"51":1.1255886138512192,"52":-1.3719113280344026e-53,"53":0.08857997390213529,"54":0.21508461182287736,"55":1.2545502775089556e-54,"56":0.040940848913193016,"57":-2.013608763065499,"58":0.03238548666336283,"59":1.7290900998809842e-53,"60":-0.10260432460862198,"61":0.42238278245651706,"62":1.4580827156867363e-53,"63":-0.40200962733566503,"64":0.7277606488968389,"65":-1.4493996011775806e-53,"66":0.4477324645431269,"67":0.6146334277800638,"68":-5.377487968156341e-54,"69":-0.33631778077511065,"70":-0.14286118183629784,"71":-1.5238934375420557e-53,"72":-0.6170792702785022,"73":-0.025158151429311715,"74":6.113311505501781e-54,"75":0.38418247062744126,"76":-0.34998070325198455,"77":2.424543205482452e-53,"78":0.05791841000329746,"79":0.7011798276518113,"80":-1.9168552015820156e-54,"81":-0.29078436904734706,"82":-0.1664465654661024,"83":5.052178071597625e-54,"84":0.14195744664467222,"85":-0.44540431950772874,"86":-1.413159207083696e-55,"87":0.2684044873141276,"88":-0.6723182573123441,"89":-4.4046251096949854e-54,"90":0.2494370099984231,"91":-0.36092751722151806,"92":1.813689150659581e-53,"93":-1.5092698363770336,"94":0.24973282667830052,"95":-8.854628925784434e-55,"96":0.6104252237726735,"97":0.04770679895588681,"98":-1.5720334046391076e-53,"99":0.678278200255041,"100":-0.21974647726682192,"101":-1.5199477000365475e-53,"102":0.3632187641340461,"103":0.14272692145635932,"104":1.3395965889173004e-53,"105":-0.3036948297070097,"106":0.37886576177170184,"107":-1.616520636518818e-53,"108":0.20556453496063679,"109":1.5050387602106028,"110":7.709042724516123e-54,"111":0.060101149661380644,"112":1.44810150280532,"113":-1.082159010860305e-53,"114":-0.2769576409223864,"115":0.28256479163417786,"116":0.16077256646452048,"117":0.1706435721657573,"118":0.19078723805131928,"119":0.10630160417360983,"120":0.30200186440606974,"121":0.14447362818194315,"122":0.14861502030766277,"123":0.11459820671347531,"124":0.18092545911473837}},{"sx":1,"sy":1,"depth":125,"w":{"0":-0.34080874626446084,"1":-7.524178058729568e-54,"2":-0.4209938100814873,"3":-1.1621094132424747,"4":9.911222714523385e-54,"5":0.39906091331485566,"6":-1.4603582821056826,"7":-6.862295362982374e-54,"8":1.1101791153085399,"9":-0.4881677201850763,"10":2.7237041634759737e-55,"11":-0.45972953804990313,"12":-0.0096614604001487,"13":6.076856470938008e-54,"14":-0.5209944850933927,"15":0.5016017563908876,"16":7.556365385854453e-55,"17":-0.9008677733526875,"18":1.0157130413597935,"19":-1.2400906988385599e-54,"20":0.5763656886748564,"21":0.8862137968100051,"22":-1.716556559624773e-54,"23":-0.44745108261986544,"24":0.9414606960144937,"25":-1.768806832159391e-54,"26":-0.4746721390930754,"27":0.7710391992789438,"28":-8.866361505958875e-54,"29":0.5614542123345763,"30":0.6226269054541436,"31":2.3002698015168745e-53,"32":0.14216795660715523,"33":-0.09270113888840174,"34":1.123841932679883e-53,"35":-0.039803588954900194,"36":-2.6563821164389134,"37":-7.603216624012031e-54,"38":1.4287207962856392,"39":-1.1192393569880414,"40":3.5551094854185224e-54,"41":1.5656704230784133,"42":0.1558533544048598,"43":9.39307516154384e-54,"44":2.105089383843927,"45":1.3055282902780605,"46":1.0090256845348763e-53,"47":2.3021846871591025,"48":2.876312250361264,"49":-2.1475390837776473e-54,"50":0.8585856047871436,"51":-3.0919124103459743,"52":-9.049621274277967e-54,"53":0.13975053345160046,"54":2.3706684775341755,"55":5.123289903962974e-54,"56":-0.7283741935154144,"57":0.37364541025371034,"58":0.12333851303036479,"59":-1.7809647739901644e-53,"60":-0.30522557688227187,"61":-0.16939441690746884,"62":-1.3169954461620183e-53,"63":0.38701218303315055,"64":-0.11653594799387623,"65":5.883561058147113e-54,"66":-0.14474786104893336,"67":0.40705881137187794,"68":-1.1143204122571568e-54,"69":0.09836204248488167,"70":0.8992353032711051,"71":-7.385984560788674e-54,"72":-0.3488280843776561,"73":0.6212979731839583,"74":-4.735016676384795e-54,"75":-1.0972820714400147,"76":0.5457108061803583,"77":-1.8303746582951188e-56,"78":0.7476079189778215,"79":1.1258970799222783,"80":-1.1183784215713125e-53,"81":0.06208022684521455,"82":0.7700700050346088,"83":-2.0214401799347195e-54,"84":0.005303169839552371,"85":0.6273445488118954,"86":6.385564753987823e-54,"87":-0.38436612456429176,"88":0.47975869533959975,"89":-6.350780259244368e-54,"90":0.035812035012599754,"91":-0.21813849309817437,"92":6.799414372708646e-54,"93":0.4804681899959916,"94":-0.3105746053352883,"95":-9.673611368616413e-54,"96":0.16220704224528326,"97":0.8636019744348709,"98":1.0470599354356394e-53,"99":0.13708095023642886,"100":1.3346143312055165,"101":3.456446611254782e-55,"102":0.07681043054193563,"103":1.6573299510301363,"104":9.956185481736805e-54,"105":0.4054242548424345,"106":2.83392745471305,"107":-1.163695198565907e-53,"108":-0.49632262210824074,"109":-3.276517713479756,"110":8.948376575901068e-55,"111":0.2775214039614614,"112":1.2335764818670167,"113":-1.5382320372399088e-53,"114":0.3534997684792026,"115":0.5983976607686029,"116":-0.40865662635007943,"117":-0.382774620928418,"118":-0.392999422935345,"119":-0.41698934642660307,"120":-0.3840741219833914,"121":-0.43501921967990453,"122":-0.3842428780712958,"123":-0.41131090812455184,"124":-0.4085812810185095}},{"sx":1,"sy":1,"depth":125,"w":{"0":1.4582340017183701,"1":7.993663016843193e-54,"2":-0.7479778160324356,"3":1.7468024512318656,"4":-5.705472631189855e-54,"5":-0.5716398776123681,"6":1.0807111892495795,"7":-1.5890235888453505e-53,"8":-1.6036590807175022,"9":0.794455648244366,"10":4.7800500441867403e-54,"11":0.302710815130684,"12":1.3321625112016577,"13":2.2232202991462637e-54,"14":-0.5789633394724533,"15":1.6377143651454071,"16":1.0315896279220171e-53,"17":-0.7130172723285217,"18":0.991132032820461,"19":5.2013103502537055e-54,"20":-0.30190178024932574,"21":-1.9687053801193128,"22":-7.78542378088012e-55,"23":-0.11359652489116787,"24":-0.2205175180466911,"25":-1.5320924243838618e-54,"26":-0.16640799295917622,"27":-0.32279782916032757,"28":3.3183701455410724e-54,"29":0.06552315160754307,"30":0.060908770728589794,"31":-5.968036312943403e-55,"32":-0.4398323498270869,"33":-0.08953731644735352,"34":6.119384728129874e-54,"35":-0.48983846798076575,"36":1.386333738686732,"37":-9.919100436858104e-54,"38":0.8236932881407764,"39":1.6491102083660578,"40":4.0219287190188865e-54,"41":-0.16244552991123062,"42":1.178030637173531,"43":-8.84786413782621e-55,"44":-0.3836424826471425,"45":1.0945791757962562,"46":-1.3618523052351433e-53,"47":-0.6911035328340609,"48":1.093493463612999,"49":5.121930218056024e-55,"50":-1.3261233864725448,"51":0.03185932778191637,"52":2.9034908876405504e-54,"53":0.4297781954774671,"54":0.3324756572375647,"55":-1.6349439083869118e-53,"56":0.6779659147703437,"57":-1.3856821316617745,"58":0.6784348039787242,"59":2.4838039170458264e-55,"60":-0.2722781610464001,"61":0.838424983107311,"62":-6.120979500216628e-54,"63":-0.8252399913506037,"64":0.4260450147577644,"65":7.134792925326917e-54,"66":-0.830680807961602,"67":0.28745459898190273,"68":-7.98747565788958e-54,"69":0.5475959436753222,"70":0.542595934807723,"71":-4.9245430533713466e-54,"72":0.12993314601979458,"73":0.24508915271255446,"74":1.5342740089882748e-54,"75":0.24152612417046945,"76":-0.19726985316227796,"77":1.0451890880873788e-53,"78":0.17123802431640722,"79":-1.9424019309820997,"80":-3.948677082521969e-54,"81":0.27188192584217674,"82":-0.22748856298947812,"83":-1.7549934421030054e-53,"84":-0.6590384659941628,"85":-0.3269964679060198,"86":-5.959073238254133e-54,"87":0.6960942403934915,"88":0.11420046038784641,"89":5.904358127811447e-54,"90":0.22817668247624784,"91":0.6249428095188994,"92":-3.628889739531759e-54,"93":-0.19165560856441802,"94":0.4468088743280573,"95":-6.019861877229786e-54,"96":-0.0045727525030315,"97":0.231905863466764,"98":4.648171846276475e-54,"99":-0.13590356903372872,"100":0.17478044953676664,"101":-1.310777319329409e-53,"102":-0.02868047143789157,"103":0.411863983199198,"104":-1.4246934539586426e-54,"105":0.14078075622864392,"106":0.01947592275277495,"107":-1.965757424790073e-55,"108":-0.7168404633701925,"109":-0.4966503322466458,"110":-1.6819638678938196e-53,"111":0.20420048433534524,"112":0.935138918705605,"113":2.642651739565191e-54,"114":0.6240707641691773,"115":0.5527097394412295,"116":-0.10169120923417915,"117":0.27386267197897113,"118":-0.11100467406790927,"119":-0.005411847511421854,"120":-0.24792428267146058,"121":-0.10647726894580932,"122":-0.05859307769945573,"123":-0.18116003564792765,"124":-0.000368725495554755}},{"sx":1,"sy":1,"depth":125,"w":{"0":0.568923525558251,"1":1.511268499982564e-53,"2":-1.141187196597544,"3":-0.3861154267300673,"4":-9.131261251197252e-54,"5":-1.2445844008955236,"6":-0.3828910074354766,"7":4.7891588922820045e-54,"8":-0.008463525891381857,"9":0.44053371356257176,"10":3.741234652213361e-54,"11":-0.7617814791624665,"12":0.7050716238783049,"13":7.86206823016085e-54,"14":-0.2520529934782881,"15":0.4760020452436226,"16":-3.929203374637134e-54,"17":-0.9086930395952102,"18":1.8840706667530767,"19":-2.3449877208067286e-54,"20":-1.2675510226682491,"21":0.4256394280645895,"22":6.620408207409463e-54,"23":0.6264158651211833,"24":-0.11830142445135061,"25":-1.685599843881607e-53,"26":0.8859196024175353,"27":-0.33092301959265513,"28":8.431018479053656e-54,"29":-0.08068287947577057,"30":0.0426728426782414,"31":-2.3497711303826262e-54,"32":-0.24373875223047678,"33":1.2349991160105267,"34":3.534380173014613e-54,"35":0.4836677867213207,"36":-1.2926704941566722,"37":-8.277395857463453e-54,"38":1.611014884300796,"39":-0.13909411239379843,"40":2.0540262613164676e-54,"41":0.07410387608711604,"42":-0.5154456600860798,"43":3.54317513763205e-55,"44":0.1808193501462872,"45":-0.3971368974158267,"46":-6.536560423321382e-54,"47":0.24005026574146474,"48":-0.3280956023494729,"49":8.949955416212628e-54,"50":1.0119631740264934,"51":-1.7342135269340229,"52":-9.692066062830177e-54,"53":0.4877090304352512,"54":-2.8549310993644,"55":-9.853670982297572e-58,"56":-0.7471249285814596,"57":-0.7803714314012183,"58":0.7634183966775889,"59":1.352820796314051e-53,"60":-0.5933695233897377,"61":0.17245193921436575,"62":1.3310291704164067e-54,"63":-0.18358475172872482,"64":-0.2523154763973531,"65":-9.652150550924164e-54,"66":-0.7259516746178968,"67":-0.286635269675088,"68":-1.8334162948973885e-54,"69":0.24868781110874716,"70":-0.2938566850096828,"71":1.2460486807506164e-53,"72":0.05378210086256563,"73":0.21857959452347084,"74":-7.048609074478918e-54,"75":-0.09590715369000329,"76":1.0266638848605454,"77":-1.5319028598528059e-53,"78":-0.2571153181208686,"79":0.32953831106270426,"80":6.442972567136756e-54,"81":-0.18429171960951798,"82":0.07019325128092307,"83":2.744298627536457e-55,"84":0.27009529477623007,"85":-0.03103080125851354,"86":2.8078878093189446e-55,"87":-0.45876295000728107,"88":-0.0964540228393781,"89":1.698773675847209e-54,"90":-0.392015900693733,"91":0.9047215122044532,"92":-3.59323101241626e-54,"93":-0.32709500197065067,"94":-0.32835560039360173,"95":6.298865305271054e-54,"96":0.31913516321257684,"97":0.33370531787589036,"98":-1.0152822240073245e-53,"99":-0.06471357818931894,"100":-0.5658213869668309,"101":8.111053565533537e-54,"102":0.1141268886917698,"103":-0.5323702924903725,"104":3.62650343036378e-54,"105":0.13906604562667688,"106":-0.6446760114094546,"107":1.2918116167326083e-54,"108":-0.05798249283576914,"109":-2.3963068241232284,"110":2.677195883660559e-53,"111":0.0584161578508558,"112":-1.3185880770668428,"113":1.347019063094519e-53,"114":-0.7405804563982887,"115":0.022484908335537564,"116":0.24359863946497579,"117":0.3805012244009877,"118":0.24740479259433537,"119":0.2478691247020422,"120":0.21575443290832022,"121":0.2836966518484807,"122":0.24615463836585796,"123":0.30799286044789315,"124":0.22372991697719086}},{"sx":1,"sy":1,"depth":125,"w":{"0":-0.4211019971771176,"1":1.2796194014543417e-53,"2":0.7303230623589135,"3":-0.4362549140720345,"4":-1.8684323956024377e-53,"5":-0.5035989041346566,"6":-0.5650328195125358,"7":-1.451413602461142e-53,"8":0.797119334893938,"9":-0.09346394039882736,"10":-1.0370015859359835e-53,"11":-0.10070606585769336,"12":-0.18055016954070283,"13":1.8784434443334094e-53,"14":0.3621592881215799,"15":-0.04718103073065925,"16":3.7041781696628395e-54,"17":-0.22278061994760387,"18":0.7655996763959301,"19":-1.0951503346916915e-53,"20":-0.36583057675945946,"21":-0.617568132175833,"22":1.2001845030108931e-53,"23":-0.25362885892354586,"24":-0.8771558070826995,"25":-5.2048870637292e-54,"26":0.5030174818696665,"27":-0.3846557908759753,"28":-7.091842475226827e-54,"29":-0.044182602257515524,"30":-0.09576674904276926,"31":1.449563464149199e-53,"32":-0.4123515271954146,"33":1.6811160384158799,"34":1.040010197696141e-53,"35":-0.3898247636540244,"36":-0.9401244651956833,"37":1.4076656687490722e-53,"38":-0.6705960396514677,"39":-1.3214242835913068,"40":7.2281213224457e-55,"41":0.402739943088796,"42":-1.6428492539371853,"43":1.580166919059914e-53,"44":0.47166370817538117,"45":-1.6761158713822941,"46":1.311911167575343e-53,"47":0.5275937399066591,"48":-2.087423572956445,"49":-4.468731538421631e-54,"50":-0.12352963328564381,"51":0.9495368872439217,"52":4.3599848249881826e-55,"53":-0.20408416496436108,"54":-1.7340423400267173,"55":6.48252343021832e-54,"56":-0.6196090578176086,"57":-1.4463859474112306,"58":0.3755371216216985,"59":4.0449084327957986e-54,"60":-0.04239417601370576,"61":0.39085713944008443,"62":1.379224095898975e-53,"63":0.39432144561286514,"64":-0.17753913589203707,"65":-8.163135057231593e-54,"66":0.13457444076123587,"67":0.31128122930542906,"68":-4.264795550173279e-55,"69":-0.17541873447047418,"70":0.14930171788788407,"71":-1.545281451019685e-54,"72":0.22602278469902487,"73":0.24557702351779964,"74":1.2576449454602276e-53,"75":0.15381892281203988,"76":0.2484921476216071,"77":-2.334999783338051e-53,"78":0.13159458882479455,"79":-1.1376891101822635,"80":-1.5830310689510493e-53,"81":-0.13882731190310524,"82":-0.6712056817287538,"83":-2.2389843156234867e-55,"84":-0.1431725119605052,"85":-0.43058760941038066,"86":-2.4984450227263831e-54,"87":0.48846101022986255,"88":-0.2842326825944968,"89":1.951843014995013e-54,"90":0.15683618920744086,"91":0.7049941374419056,"92":3.946002525284381e-54,"93":0.394444454198519,"94":-0.38354131334986385,"95":3.311655892464236e-54,"96":-0.33125639507724447,"97":-0.5019258052739417,"98":-5.093080721919381e-54,"99":0.04727029698903736,"100":-0.661692826229056,"101":5.909813159194506e-54,"102":0.24679329781194423,"103":-0.7942517849827052,"104":1.2464491011447001e-53,"105":0.23159009342655673,"106":-0.9912269654017672,"107":3.139159095626393e-54,"108":-0.40107666581835577,"109":-0.10635519828527683,"110":5.378503739438772e-54,"111":0.0005133668678118249,"112":-1.3492672931680696,"113":-2.012957015231882e-53,"114":-0.2989592064172416,"115":-0.1311671587190033,"116":1.6139290942921206e-7,"117":0.3836837159544443,"118":0.3788806603807443,"119":0.3880592661932261,"120":0.3802394769674194,"121":0.36640021502388814,"122":0.37108226146231366,"123":0.3912573045998666,"124":0.4121980685666474}},{"sx":1,"sy":1,"depth":125,"w":{"0":-0.19492925257254975,"1":6.577712946696284e-54,"2":-0.09163369369021156,"3":0.04513483298301991,"4":5.126712409113287e-54,"5":-0.832817764739056,"6":0.7404683166800474,"7":2.4063012650606545e-54,"8":0.24180576671847534,"9":-0.03791471913930122,"10":-1.529546019787688e-53,"11":0.2947786378274321,"12":0.1205693011832238,"13":-4.2635633641011944e-55,"14":-0.3033443279928201,"15":-0.43336215431058644,"16":2.3060467901641984e-53,"17":-0.6369093356769717,"18":0.04056021013128583,"19":-5.033253544989415e-54,"20":-0.9335571450341215,"21":0.6224150427679165,"22":5.241451955849267e-54,"23":-0.47903890425737994,"24":-0.3574534366160873,"25":1.4877520694075687e-53,"26":0.28349756048492875,"27":-0.5948867501304752,"28":-1.1658276643631812e-53,"29":0.6054019710879907,"30":-0.33410588819481185,"31":-1.5123077122806611e-53,"32":-0.6668788135542819,"33":-0.16437033016263233,"34":2.5560996901431293e-55,"35":-0.5521185170886475,"36":1.08232190742294,"37":1.25377199643255e-53,"38":-1.5612293180042218,"39":-0.2245394190489503,"40":1.1397789329955223e-54,"41":-0.5699140231745056,"42":-0.959512488576382,"43":-4.910036468396474e-54,"44":0.2771166889935468,"45":-1.026617720100476,"46":6.949799073654875e-54,"47":0.135909482602956,"48":-1.1097273880731457,"49":-5.690085935864906e-54,"50":-0.08419383389855722,"51":-1.1526398952460892,"52":-4.790472809452552e-54,"53":-0.09585716981296709,"54":-2.590337516236803,"55":-1.2839558104272839e-53,"56":-0.9441546225391366,"57":-0.4647550333654472,"58":0.2486949836696696,"59":-1.3606972364697594e-53,"60":0.13294866453957802,"61":-0.25511701886225946,"62":5.0068439295843166e-54,"63":-0.3899958715198337,"64":0.12283554497706145,"65":-1.2450045638855924e-53,"66":0.2278371243058141,"67":-0.45217818155705675,"68":1.2910792752064539e-53,"69":0.4752142508963747,"70":-0.1781944238301996,"71":-6.456282376173924e-54,"72":-0.7301464044588521,"73":0.4938225386590546,"74":9.15788242305745e-54,"75":-0.4518707213310628,"76":0.4869733292181963,"77":-1.2777834397050486e-53,"78":-0.48398617185212395,"79":0.31060110851329314,"80":-2.3586678441189056e-54,"81":-0.10277209574387237,"82":-0.23271073715928964,"83":1.2645901052510283e-53,"84":0.40140821161846874,"85":-0.2145655215623118,"86":6.212033193966973e-54,"87":0.3198306630391395,"88":-0.5663823315343893,"89":4.2481025609316654e-54,"90":-0.3802601534764843,"91":-0.47458182858467846,"92":8.558979048644652e-54,"93":-0.08610955647575762,"94":0.20937361046049946,"95":-3.8511267380287503e-54,"96":-0.25144509863423337,"97":-0.6886792299473443,"98":-1.6784191427083151e-53,"99":0.11738933532020092,"100":-0.868467984487702,"101":2.1886547003498955e-55,"102":0.07208714127922294,"103":-0.7284250331815046,"104":1.4430721531031788e-53,"105":0.07567444028841135,"106":-0.5848073992012488,"107":-1.5495613179275385e-54,"108":-0.05698154644478001,"109":0.06258834029528254,"110":-9.085804987197633e-54,"111":-0.2975607664563535,"112":-2.7866568645762992,"113":-2.1054223986198516e-53,"114":-0.42177568073668953,"115":0.0667745157204783,"116":1.9082793787943985e-25,"117":-1.0903475219071542e-48,"118":-1.2944653278942627e-48,"119":0.2925923156904739,"120":0.29759540237847354,"121":2.9202006443537626e-31,"122":0.3062993647090087,"123":-1.218430418250096e-48,"124":0.3256323606835709}},{"sx":1,"sy":1,"depth":125,"w":{"0":2.24803405952278,"1":-1.987744488211458e-54,"2":-1.7276371835818347,"3":1.8510071777065544,"4":3.482207308856096e-54,"5":-1.2324275057715175,"6":1.3174690340092998,"7":-7.352916276754629e-54,"8":-0.4501915121533597,"9":0.6524615687295426,"10":5.312071290679713e-54,"11":-0.23992208263009593,"12":0.04657292347198909,"13":-2.382066148612907e-53,"14":0.09414704245675384,"15":-0.7799099187094949,"16":1.1565991569723561e-53,"17":1.0040601064815398,"18":-3.4610551507701808,"19":1.2387595898288399e-53,"20":1.468012600703916,"21":-1.5002394947816287,"22":1.2340836490479392e-53,"23":0.018016614924341232,"24":0.19846734007060204,"25":2.853494921711733e-55,"26":-0.1048745430116158,"27":-0.058796387515353855,"28":-9.514328354532842e-54,"29":-0.19600118872651437,"30":-0.07081327674788795,"31":4.9109052794494936e-55,"32":-0.9062767385519662,"33":-0.5578301438712335,"34":-4.76209792389368e-54,"35":-0.7788771317783718,"36":1.0146744749859586,"37":1.19348508582218e-53,"38":-0.02695773007317452,"39":0.457119123882371,"40":-7.471369761440661e-54,"41":-0.46050648598934113,"42":0.2417798495937051,"43":1.0317443548420954e-53,"44":-0.224160058450665,"45":-0.1369013609171212,"46":-6.324686721226604e-54,"47":-0.10698564635424622,"48":-0.3756251983293522,"49":-1.129789323696813e-53,"50":0.07484595850317378,"51":-2.424119203130433,"52":5.110128984517118e-54,"53":0.5164177601317271,"54":0.8410590276177096,"55":-1.0230711850015371e-53,"56":0.3229097924845788,"57":-0.051759603909442974,"58":0.09187302825730895,"59":-5.689876236951406e-54,"60":-0.6540004673667523,"61":0.27006906239825246,"62":1.079954645626202e-53,"63":-0.3877007938655899,"64":0.15696702362764223,"65":-6.031572512719299e-54,"66":0.51948057253493,"67":0.08590197253296415,"68":3.2678061080754576e-54,"69":-0.10326126629233127,"70":-0.48867132284711956,"71":-5.610581124369811e-54,"72":0.041773294600814005,"73":-1.2813917044870515,"74":2.460727647957402e-53,"75":-0.041734025115919456,"76":-1.5404102853891313,"77":1.3993145705851023e-53,"78":-1.1440793226076431,"79":-0.7381797302139206,"80":4.606194841645199e-54,"81":-0.042590673263494166,"82":-0.26506489625314766,"83":-4.615983151196749e-54,"84":-0.2582880361599422,"85":-0.003849005206839739,"86":1.0171600640055418e-53,"87":0.007088595236834992,"88":0.06508392808971623,"89":-1.6414905724029905e-53,"90":-0.6814469060391545,"91":0.10532248480847849,"92":8.312483055733015e-54,"93":-0.5401676168319395,"94":-0.26496724671640853,"95":-1.4173091782885312e-54,"96":-0.20961912076867495,"97":-0.5768503943892667,"98":-2.568744567534702e-54,"99":0.1295823375284581,"100":-0.5800628653165478,"101":-1.2872104146847414e-53,"102":0.39251007353762013,"103":-0.5539499519533153,"104":1.2259142393216373e-53,"105":0.1320314074250153,"106":-0.5996254925440883,"107":-2.520490602843927e-54,"108":0.12476064129232185,"109":0.0023568572052932524,"110":9.81352819009835e-54,"111":0.3294072449239191,"112":0.07000578332117977,"113":7.041527365339029e-54,"114":-0.133451253351552,"115":0.11614007033558249,"116":0.09148342834195741,"117":0.1371374083034663,"118":0.16764253411792207,"119":0.11556348816029215,"120":0.17597514617872204,"121":0.11776104971811174,"122":0.11412791578376756,"123":0.26375486763398975,"124":0.10808504691923229}},{"sx":1,"sy":1,"depth":125,"w":{"0":1.2338516060579252,"1":1.750696498813147e-53,"2":-1.375622081595226,"3":-0.28919167880061464,"4":1.4543709743363761e-53,"5":-1.0641107461670676,"6":-0.7574980395892962,"7":-1.9095829982866427e-54,"8":0.3166090698199337,"9":-1.8498467794849844,"10":-1.638895085134676e-54,"11":1.533130674881599,"12":-1.5327956734369155,"13":7.655464403641868e-54,"14":0.837112929191197,"15":-1.556625773282658,"16":1.5050406284743134e-53,"17":0.5481084052532044,"18":-1.7625043226006336,"19":8.701202171090441e-54,"20":0.385808172701841,"21":0.8177688444211908,"22":1.213190623229607e-53,"23":-1.7380177524399567,"24":0.8056196559669914,"25":-8.880356016329786e-54,"26":1.0015174664847926,"27":0.4088824725910084,"28":-2.3299040117902183e-54,"29":1.7714784010230684,"30":0.7683653937874537,"31":-9.065365908840586e-54,"32":-0.3478902996452943,"33":0.2867883157886179,"34":1.0571513161726252e-54,"35":-0.4373701803641186,"36":-1.6577490376615627,"37":5.342502205648764e-54,"38":1.4784617739277772,"39":-2.055384971812177,"40":-9.782034274949594e-54,"41":0.6503017111633297,"42":-1.970865420039658,"43":7.184752724516177e-54,"44":0.9191048601373009,"45":-1.953613747534579,"46":1.118981634116251e-53,"47":0.9299874481881661,"48":-1.6234995515186275,"49":-6.327752278049914e-54,"50":0.963742928988492,"51":1.0024740025483925,"52":-1.6339142005174678e-54,"53":0.42814892385122955,"54":1.1530394685742873,"55":-7.125347635774116e-54,"56":-0.258183482941475,"57":1.4985159908661276,"58":1.271646383713921,"59":-3.2461310726806885e-54,"60":-1.7053985650234413,"61":0.6907948790635876,"62":-1.5334671146186356e-53,"63":-1.0753758234641189,"64":0.49700475248063414,"65":-2.5911782898170538e-54,"66":-0.4351076182115437,"67":0.18052141568240052,"68":1.7852744203422353e-54,"69":0.8890122782494921,"70":0.022340239717939532,"71":-9.028758395101771e-54,"72":0.6055815859344329,"73":0.13019808548752093,"74":-8.067089442199544e-54,"75":0.5787006313700702,"76":0.6657689592942858,"77":-6.205167091096733e-54,"78":0.9961879031444065,"79":0.5127262493710436,"80":-1.6197372230212226e-53,"81":0.17751042049753432,"82":0.6770512351383983,"83":4.3887827284475997e-54,"84":1.2649243318586747,"85":0.31537825550953835,"86":1.0087529435310225e-53,"87":0.515919054076394,"88":0.7955476474465487,"89":-1.9352253043079015e-54,"90":-0.13659865185750752,"91":0.6032837658672643,"92":-1.682851051365073e-53,"93":0.260892505954632,"94":0.0034575870650586653,"95":8.620690073913366e-54,"96":1.1957253976423186,"97":0.14249126462742295,"98":-3.3497920457057104e-54,"99":0.5801127362019161,"100":0.19758833559632988,"101":-7.005985576568514e-55,"102":0.80960647257832,"103":0.054994390436375114,"104":1.7032617653831212e-53,"105":0.9150907555134014,"106":-0.03178310184638184,"107":-2.1386939697941698e-54,"108":1.0055147257878099,"109":1.243361287868144,"110":-8.188026212299628e-54,"111":0.5312764674217105,"112":0.5617408434737815,"113":-7.998739301782002e-54,"114":-0.2684910180925537,"115":-0.2910162106454276,"116":-0.35586090894245404,"117":-0.3895900108303602,"118":-0.42022817904603293,"119":-0.47298842994900325,"120":-0.4020719144309286,"121":-0.43597347989613533,"122":-0.4472203946428463,"123":-0.4290278793578303,"124":-0.3729580667108072}},{"sx":1,"sy":1,"depth":125,"w":{"0":-0.6923753888579461,"1":5.845786066037125e-54,"2":0.6656262989705435,"3":-0.4721357516077183,"4":-5.662861609163069e-54,"5":0.14160006317775115,"6":0.5731846918189267,"7":-9.772466235946943e-54,"8":-0.7472169514058471,"9":0.3631951192427957,"10":5.313479698357549e-54,"11":0.2886183031371989,"12":0.29099113403158494,"13":-1.8019617572298728e-53,"14":0.3895449656911082,"15":0.3581208199167437,"16":-2.2821455495543977e-53,"17":0.17848247373629833,"18":-0.1903769563343234,"19":1.668281083234369e-53,"20":-0.16346345311114105,"21":-0.07981649732536582,"22":2.0925749038576397e-55,"23":0.499735729644479,"24":0.02587108391300665,"25":5.423906138149004e-54,"26":0.4757877478638151,"27":0.2613120007808694,"28":1.776888122573813e-55,"29":-0.6708927262660686,"30":-0.09181283430324505,"31":-1.055110928565361e-53,"32":-0.19670564016989037,"33":0.6287904969932617,"34":8.825924493203716e-54,"35":0.5044877002545919,"36":-0.3861861320310639,"37":1.1671790523736631e-53,"38":-0.555358183604461,"39":-1.0036898425792053,"40":-5.371520480105708e-54,"41":-0.008144586033566402,"42":-1.0438183864564825,"43":5.892269026067914e-54,"44":0.054189004106746284,"45":-0.9888588543422634,"46":9.406604397368106e-54,"47":0.3282644525607298,"48":-1.0992223025895715,"49":2.8582983548958777e-53,"50":-0.28928702138244006,"51":0.21538168602718838,"52":-1.0388956322007458e-53,"53":-0.17775330535068645,"54":-0.8396159266812494,"55":1.2807162019598497e-53,"56":-0.4163994932803162,"57":-1.3454657836717945,"58":-0.10397673968387942,"59":-1.2245157711319392e-53,"60":0.388978454880014,"61":-0.061575545448920396,"62":-7.044606947687073e-54,"63":0.057059819674386614,"64":0.38783022986363785,"65":1.2342269855104291e-53,"66":-0.14373630744079724,"67":0.1090670356884121,"68":4.440077935354944e-54,"69":-0.23321621792644928,"70":0.022811739714835178,"71":7.105425976150897e-54,"72":0.008317064803265306,"73":0.16441853875908807,"74":7.861773556285913e-54,"75":0.2461599771269948,"76":0.050223415279869385,"77":-5.974564383508275e-54,"78":0.21249546653076987,"79":-0.18717948578528185,"80":-1.3777553246031836e-54,"81":0.2619844078830765,"82":0.09783649450053938,"83":1.155727611663105e-53,"84":0.11142907802262067,"85":0.09497225926377724,"86":2.3087099793128656e-54,"87":-0.556003849454077,"88":0.11748174530065203,"89":8.10003914188637e-54,"90":-0.34244243904264815,"91":0.050148718396131026,"92":-1.1007382203836278e-53,"93":0.33729269627053,"94":-0.15671581298395657,"95":2.9812884618784797e-54,"96":-0.23077481319376156,"97":-0.8909761669389834,"98":6.492042099736343e-55,"99":0.0899251642770567,"100":-0.8034177987271559,"101":-2.4216140342764724e-55,"102":0.03896131021863401,"103":-0.8854497493416014,"104":6.679885919365787e-54,"105":0.07020178335483897,"106":-1.0898185003716612,"107":-1.4728872300309862e-53,"108":0.18788266223316466,"109":-0.10787006835262836,"110":-5.362834590329305e-54,"111":-0.363372827115763,"112":-1.1086544592962322,"113":-5.533012537424663e-54,"114":-0.11753945843805905,"115":-0.06440872060947823,"116":0.2703442930238813,"117":0.11478617044455453,"118":0.07358038955485213,"119":0.012497206475072293,"120":-0.007111477462220365,"121":0.005232050935337296,"122":0.27404911874068855,"123":0.1946413737338903,"124":0.0641083581961368}},{"sx":1,"sy":1,"depth":125,"w":{"0":-0.046369136588654804,"1":-6.582041965053566e-55,"2":-0.20791733063817783,"3":0.4546593645365667,"4":-1.5753862070022515e-53,"5":-0.584241353422576,"6":0.9733475653913198,"7":9.927791129792825e-54,"8":-0.25778274154742975,"9":2.065338113916774,"10":1.0362944837257115e-53,"11":0.04842066674756778,"12":2.306220394651333,"13":-4.614950920232545e-54,"14":-0.13744734753557508,"15":1.4809418054822094,"16":-6.371169538833558e-54,"17":0.35029316157267676,"18":0.6903292958435612,"19":-1.4246268025292156e-53,"20":-0.5448852408018153,"21":-0.6603342066011463,"22":-1.0319881238783934e-53,"23":-0.2554106280062005,"24":0.18163957737044711,"25":2.257501755811755e-54,"26":1.292419256293023,"27":0.5320923630089304,"28":4.030678614793085e-54,"29":-0.45602063480995375,"30":0.14447727837318772,"31":-8.191249696604077e-54,"32":-0.30550329081858424,"33":1.0156385486742978,"34":1.2499230696705526e-54,"35":-1.1874827430826198,"36":1.6908375133921325,"37":-1.6415972362730823e-53,"38":1.001741876947193,"39":1.760519854847323,"40":8.449670446783157e-54,"41":0.2362310027695255,"42":1.849312243464169,"43":4.20547212520531e-53,"44":0.5222206980825641,"45":1.5305464544981537,"46":2.870372943465421e-54,"47":0.8386861545585739,"48":1.7019821311308863,"49":2.4663435027916328e-54,"50":0.5174009250131268,"51":1.7887650653650888,"52":4.1858560472250485e-54,"53":0.19077076227645892,"54":-1.686081361291315,"55":1.9214617641329312e-54,"56":1.4561730610904182,"57":-0.9105224535460682,"58":-0.3467609506543045,"59":-3.070962119237598e-54,"60":0.10023894048627364,"61":-0.0670139723142277,"62":2.2084578344023864e-53,"63":-0.1867562817742428,"64":0.4697443187110273,"65":-2.018439553497444e-54,"66":-0.2609937258269832,"67":1.1620616120719391,"68":-1.1217986538904936e-53,"69":-0.027435324423791225,"70":1.2549824138491856,"71":-6.945531130344451e-54,"72":0.038538945167767194,"73":0.2025606243048508,"74":-2.7953124606462906e-55,"75":-0.5065909354433661,"76":0.09446256218110509,"77":7.13234530210471e-54,"78":-0.28029863855518694,"79":-0.5434675163520085,"80":6.624545489522777e-54,"81":0.06443588425549725,"82":0.04195860776112711,"83":-5.28670923056017e-54,"84":0.5738077835041265,"85":0.23126070157153064,"86":8.481983081730636e-54,"87":-0.026333705105328634,"88":0.14594498558732444,"89":-1.2816295450619469e-53,"90":-0.2505541244034994,"91":1.2794346814963364,"92":-1.4721161509095026e-54,"93":-0.46125606945851333,"94":0.4746633072324258,"95":5.659066886170892e-54,"96":0.3306573605962569,"97":0.20734378143379642,"98":-4.0353975349571036e-54,"99":0.18075322319446138,"100":0.46790823437971496,"101":-4.9256577353140456e-54,"102":0.17637909715672856,"103":0.5621183676095572,"104":1.052169449405035e-54,"105":0.04441236586968462,"106":0.8306887455972957,"107":6.014785490393237e-55,"108":0.0060505900626241504,"109":0.7585649319852176,"110":1.80273051328491e-54,"111":0.4742038804330182,"112":-0.10064379508719887,"113":-2.3693789306179357e-53,"114":0.9972681928632796,"115":0.030010962783579963,"116":0.0690528795363841,"117":0.13551717619192913,"118":-0.0939619043206448,"119":-0.0035871875283909178,"120":0.1850061121716613,"121":0.16498568358648627,"122":0.04678561511561562,"123":0.12450379996798797,"124":0.14093670045425719}},{"sx":1,"sy":1,"depth":125,"w":{"0":1.4378114661480161,"1":-3.8358551200558874e-54,"2":-0.11304567322301562,"3":0.46451051324668546,"4":-5.747374178485072e-54,"5":0.5305769580115861,"6":1.319967632160851,"7":-1.5898360837429656e-54,"8":-0.054232966476664604,"9":-0.011689454644909265,"10":1.349932827304018e-53,"11":-0.6528341592384436,"12":-0.35647689110658565,"13":-1.0722582873886947e-54,"14":-0.573448071219356,"15":-1.4098235732431703,"16":-2.2673959550429738e-53,"17":-0.7511536677903174,"18":-2.6174210310142967,"19":-5.142758211034684e-54,"20":1.1609379400166042,"21":1.0212863234062683,"22":-1.197507651637583e-53,"23":-0.6650885860252621,"24":-0.01943665035061423,"25":-1.0136358171829727e-53,"26":0.07882777625418641,"27":-0.25889170917956544,"28":4.0801089276950326e-54,"29":1.4378103299688447,"30":-0.4372421769921101,"31":-9.769200861631379e-54,"32":0.2005213951952143,"33":-0.3358869943605831,"34":-1.7576751328533831e-54,"35":0.3909730711221477,"36":0.3049686558174854,"37":-1.6352428250237782e-53,"38":-0.1347490290394364,"39":-0.3848488035158238,"40":-1.0379133699837834e-53,"41":0.5149271386210038,"42":-0.5544852909166386,"43":-8.574666162163939e-54,"44":-0.011693298516968646,"45":-1.0208480768769161,"46":9.080813075936586e-54,"47":-0.06499340785700719,"48":-0.7811750979514765,"49":4.682606734767256e-54,"50":-1.164208781223955,"51":0.4613881606573115,"52":-2.8455373043925525e-54,"53":-1.141618392335544,"54":1.266930564494182,"55":2.2992142310442498e-54,"56":-0.1712013421548314,"57":0.5202293835137775,"58":0.6337237817623127,"59":2.690651759188885e-54,"60":-0.057696425086012526,"61":0.04875909380205886,"62":-1.6213162775332732e-54,"63":0.6676312344284866,"64":0.5078712810792158,"65":-5.957390514846035e-55,"66":0.3733456119654801,"67":0.3811418011297841,"68":-3.981427420967521e-54,"69":-0.7422304193839104,"70":0.20828896360642815,"71":-1.0250895432904781e-53,"72":-0.6294570343934958,"73":0.5540971114368946,"74":1.5401591192383015e-54,"75":-0.6790743908320087,"76":-0.04263709670995444,"77":-1.4086104212642595e-53,"78":-1.1010708876853317,"79":0.8206661685956239,"80":2.8660074805654006e-53,"81":-0.12583361958705247,"82":-0.18314282458846476,"83":1.054920462899223e-53,"84":1.1026609673299825,"85":-0.39516582808434225,"86":-7.607823202831402e-54,"87":0.7845764097288994,"88":-0.29081214072768047,"89":-1.0451516629210183e-53,"90":0.3757610180544355,"91":-0.2429625454740764,"92":-9.456334566303355e-54,"93":-0.793271660225605,"94":0.05984171600436633,"95":-1.8757539914763433e-53,"96":0.016095430397511372,"97":0.11338735738463328,"98":5.355264564502516e-54,"99":0.05203915037103616,"100":0.17932546550332196,"101":8.081534473645732e-55,"102":-0.2549190590751741,"103":0.15332098185159512,"104":6.467485560589709e-54,"105":-0.039085108673378555,"106":-0.05578844071655784,"107":5.263443886057464e-54,"108":-0.1406516439397711,"109":1.6672566542470346,"110":-1.310151030436757e-53,"111":-0.6523376178586264,"112":-0.13188031992556762,"113":-1.1778391059803258e-53,"114":-0.48168120187965024,"115":0.13642874330754237,"116":-0.04981818405291826,"117":-0.0736460385298962,"118":0.05730032924585934,"119":-0.0002615394280039555,"120":-0.051753495871586175,"121":0.09136555226062555,"122":-0.0009052326667608301,"123":-0.03524751093566915,"124":0.0031490677150047067}},{"sx":1,"sy":1,"depth":125,"w":{"0":0.3797206584279243,"1":-4.834583460467107e-54,"2":0.9599600187915188,"3":-0.24250087989275618,"4":-5.038130054800931e-55,"5":-0.11097343830362554,"6":-0.6061910297242922,"7":-8.115788958557421e-54,"8":-1.7040811459836462,"9":-0.742998184834397,"10":-5.956949021069558e-54,"11":-0.43396903479281584,"12":-1.2195429401369344,"13":-2.587359800683778e-54,"14":1.043926426009295,"15":-1.0496668265194384,"16":-8.74701304351e-55,"17":-0.1312036192509851,"18":-0.5928075028056613,"19":9.407723821638363e-55,"20":-0.0907753755380069,"21":-0.06527470914548524,"22":1.2900151997231797e-53,"23":1.0798427678302802,"24":-0.021556171319873838,"25":-1.2991203922947726e-53,"26":0.5110937670475599,"27":-0.07020668913606974,"28":-1.0184406768835232e-55,"29":0.6969815218375429,"30":0.027033011731217763,"31":-4.62178366947523e-54,"32":0.11903769536101616,"33":0.10554776134221479,"34":-5.036258700221554e-54,"35":-1.0283030566065055,"36":-1.2405605386565786,"37":8.818393646056183e-55,"38":0.36783567881009555,"39":-0.48894943887807457,"40":5.722073839279892e-55,"41":0.8328524719605873,"42":-1.0728052059519901,"43":-6.308379942120227e-54,"44":0.7913493145189275,"45":-1.1212072836144682,"46":3.298769113661095e-54,"47":1.009263550666699,"48":-1.132575947183862,"49":-7.254143677139482e-54,"50":0.6635289896427067,"51":-0.25771169383581227,"52":3.2974752482372454e-54,"53":-1.687546777306135,"54":-0.9254819586064037,"55":5.739542983286206e-54,"56":-1.6059834562962905,"57":1.737814734361711,"58":0.6794173869967697,"59":6.711397547714981e-54,"60":0.8673398063175182,"61":0.2617549120360676,"62":-7.384739419310314e-54,"63":0.21650171624127806,"64":0.17699283603692778,"65":-1.6938327672393515e-53,"66":-0.28302822822208773,"67":-0.3571777369274736,"68":-1.8742307720456164e-53,"69":-0.5980555339156446,"70":-0.0969813852029204,"71":-1.634102889101927e-53,"72":0.1833889558640162,"73":-0.1875554607980035,"74":1.283462121214235e-53,"75":0.17193206382454065,"76":-0.2933764411607762,"77":-1.2806823828272263e-53,"78":-0.12948843448498723,"79":-0.7912332640984721,"80":-7.69568572610506e-55,"81":0.38256310595341586,"82":0.14477395372806576,"83":1.593146451290481e-53,"84":0.04685560757578948,"85":-0.022320200870349274,"86":-1.2833081750968137e-53,"87":-0.5229140954308283,"88":-0.11473385758156078,"89":1.0430234439270894e-53,"90":-0.5891878684824737,"91":0.07298982934816314,"92":-1.0665542122228064e-54,"93":-0.17196681420971022,"94":-0.3584981265396647,"95":-4.040443029723875e-54,"96":0.6202608289581593,"97":0.47424513410551117,"98":2.4043493554980382e-54,"99":0.005418369432392823,"100":0.15828664356208033,"101":4.2255719424694806e-54,"102":-0.013156721974834664,"103":0.14817829923983722,"104":-1.056262577024352e-53,"105":-0.22207948907676514,"106":-0.5171612332546406,"107":2.9511407260318545e-54,"108":0.1586321702069692,"109":-2.0002654534313487,"110":-6.2405708209951e-54,"111":-0.6459569146869741,"112":-1.3711475367465942,"113":7.457073468581717e-54,"114":-0.6180128084003785,"115":0.02833801883510518,"116":-0.10238081724500679,"117":-0.03092957423261239,"118":-0.1175221126063009,"119":-0.057505045648794634,"120":-0.1143501769536837,"121":-0.04577520454876402,"122":-0.05316712811833601,"123":-0.02934740525749023,"124":-0.15710475044325045}},{"sx":1,"sy":1,"depth":125,"w":{"0":-0.9452616521683496,"1":-8.112064580265613e-54,"2":0.11718622453544136,"3":-0.16875177808959368,"4":1.256236389886772e-53,"5":0.10873689782263854,"6":0.22598290227199433,"7":3.709336672761315e-55,"8":-0.34632867419142704,"9":-0.4747857945602389,"10":1.8097946145551945e-54,"11":0.8553768552184402,"12":0.1463520777563147,"13":7.678858815193944e-54,"14":0.012930085553757447,"15":-0.085756696035491,"16":3.5544255071534644e-54,"17":0.14593561825300352,"18":0.1278520013551132,"19":-7.907425130232499e-54,"20":-0.3708567948156296,"21":-0.7641173895244918,"22":1.1356786125833994e-53,"23":0.3810163460055143,"24":0.2639315269228962,"25":4.758319948663511e-55,"26":-0.1692296542839136,"27":0.21406071956580025,"28":1.1510557183656925e-53,"29":-0.6363898753767456,"30":0.35115176286859223,"31":1.0881689304471897e-53,"32":-0.3446231144687528,"33":0.23375638969158266,"34":9.11092671466204e-54,"35":-0.13444449296127678,"36":-0.005269766028682275,"37":-1.0606271084027103e-53,"38":-0.6577914611076827,"39":-0.6044715211066964,"40":4.153188540219887e-54,"41":-0.2247425569621799,"42":-0.4397954934512103,"43":6.541013327986537e-54,"44":-0.11941777307239106,"45":-0.21057615588409773,"46":-6.639956273539604e-54,"47":0.1871922841580748,"48":-0.5224298609711461,"49":-2.313229295966106e-54,"50":0.46378358262202546,"51":-4.135064561670541,"52":9.623618151756438e-54,"53":0.4242062290628702,"54":-4.4716761140278285,"55":-6.784601649184375e-54,"56":0.25148604371230016,"57":-0.3230989345577675,"58":-0.5082261025359698,"59":8.539996286535302e-54,"60":0.1791008584111727,"61":0.09338551132339422,"62":1.5851114448586202e-54,"63":0.440358483717205,"64":0.026369632952513287,"65":-1.9426291392541097e-53,"66":-0.03196706509002914,"67":-0.3118289488391437,"68":-5.518560769628674e-54,"69":0.30838894428504965,"70":0.029044523038934393,"71":-6.63828489218336e-55,"72":0.1834720861583289,"73":-0.16960740562533602,"74":-4.5892890172353196e-54,"75":0.25619337672836834,"76":-0.06817066976611756,"77":1.88142700872082e-54,"78":0.18605689035723588,"79":-0.19360304689865304,"80":5.328908130608277e-54,"81":0.4115814115382083,"82":0.4410162990621602,"83":3.431698943523766e-54,"84":0.20260399512280503,"85":0.20749922804189364,"86":1.7731007053598498e-53,"87":-0.7292134710167574,"88":0.25243553579252404,"89":1.6132084812298015e-55,"90":-0.10193297414157836,"91":-0.03319242009878626,"92":1.0099429428554074e-53,"93":0.036871762949599214,"94":0.5052915352641744,"95":9.964325059333478e-55,"96":-0.32746416245605126,"97":0.3287245807219803,"98":-1.8297096471389796e-53,"99":0.023303657497669033,"100":0.3398847166534437,"101":1.42050732351174e-53,"102":0.009760122787043293,"103":0.42129268382508317,"104":8.315499593372431e-54,"105":-0.01804488778787564,"106":0.020191509175035895,"107":-8.889176264431885e-55,"108":0.5752502396928152,"109":-2.1573242711510736,"110":-4.3268841285684587e-54,"111":-0.09240515176951238,"112":-2.9909641701294953,"113":1.266180758081503e-53,"114":0.14929239098169403,"115":0.19171161653603605,"116":0.09550051220878022,"117":0.09444863782587674,"118":0.09155993578780008,"119":0.12274882746990501,"120":0.08871877389698703,"121":0.0929522005472903,"122":0.09012882174516441,"123":0.08186028453453664,"124":0.09204714969611102}},{"sx":1,"sy":1,"depth":125,"w":{"0":0.41594290623772623,"1":-9.631282949062331e-54,"2":-0.8263653641469744,"3":0.3291415870632126,"4":2.294666680972268e-54,"5":-0.4204967346646388,"6":0.3568521986646129,"7":2.3788187063726e-54,"8":0.384566653969154,"9":-0.31654118823720306,"10":-1.1875805505329054e-53,"11":1.0038713758209987,"12":0.1631652615868262,"13":-2.6558096847559925e-53,"14":-0.016297316103195996,"15":0.7162652847713802,"16":-4.9320179541756456e-54,"17":0.011742399723197287,"18":1.3631379539674466,"19":8.120153377076484e-54,"20":-0.9772984465199364,"21":0.4439630187159326,"22":1.7626820907698856e-53,"23":0.09819898226058853,"24":-0.12302739235840533,"25":-7.589441787778601e-54,"26":0.28658674919594884,"27":-0.029464693365120958,"28":-4.978211450396979e-54,"29":0.13335405689046353,"30":0.2112124912376416,"31":-1.6876624385764975e-54,"32":-0.22344327440345,"33":1.9890810916593957,"34":4.6296652381121035e-54,"35":0.11163052255341645,"36":-0.827449928935915,"37":-9.794690617292112e-54,"38":0.4293556849108318,"39":-0.5663950686492719,"40":-4.247672868664015e-55,"41":0.27015690710834495,"42":-0.29430983157631574,"43":-2.866276589147385e-54,"44":0.11706685156291606,"45":0.03624054170357513,"46":-5.174886149149184e-54,"47":-0.08825123121994424,"48":-0.5342656241176462,"49":-6.043846471342552e-54,"50":2.0516152270498225,"51":2.3272443312102364,"52":-2.788862959207718e-54,"53":0.026789467029659172,"54":1.4876065210800054,"55":-3.8973330238262485e-54,"56":-0.39935401479055094,"57":-2.059162353252041,"58":0.6588263839781149,"59":5.242030114351627e-54,"60":-0.32005351654881575,"61":0.7538784232103349,"62":-7.551474689423663e-54,"63":-0.09615180753623385,"64":0.7193905313634784,"65":1.6757377360779495e-54,"66":-0.08862151047393772,"67":0.1151883673532181,"68":-3.5887799399932987e-54,"69":0.23711574024504478,"70":0.3777941068340566,"71":5.538787877786623e-54,"72":0.12938952898706851,"73":0.4835215664756864,"74":-6.251196961083238e-54,"75":0.29398038014144895,"76":0.832783765244151,"77":1.6112468002965526e-53,"78":-0.11716162066135921,"79":0.09452226698505731,"80":-9.603500885018456e-54,"81":-0.09998797759751352,"82":0.10572849104449228,"83":1.8173126989373574e-53,"84":0.06430953596810926,"85":-0.009593794034686466,"86":8.415275147725756e-54,"87":-0.027962088188990132,"88":-0.06417171140080856,"89":2.096097611209831e-54,"90":0.06712182082162145,"91":1.0552850157283236,"92":7.189122089801752e-54,"93":-0.08040016583196366,"94":0.746497715225489,"95":-4.434719299031778e-54,"96":-0.3783258230681005,"97":0.7366841553332871,"98":-5.997946167281316e-54,"99":-0.08120293147647115,"100":0.455069686744536,"101":1.223717157182821e-53,"102":-0.08853411490533085,"103":0.8860676379398048,"104":9.781457124398462e-54,"105":-0.30099887271816617,"106":0.6863355184654171,"107":-1.0076014719920437e-53,"108":-0.15795183408334812,"109":0.6471265456914809,"110":-1.598343516328785e-54,"111":0.3413429179886115,"112":2.112045790356253,"113":-2.4069429317014813e-54,"114":0.03405201700496253,"115":-0.10647242968987365,"116":0.06358371525540717,"117":0.06334056234485304,"118":0.08201392818564501,"119":0.08907672969103021,"120":0.09219433503781065,"121":0.05026780210737811,"122":0.08574357872343395,"123":0.05307971394537145,"124":0.09497655083432466}},{"sx":1,"sy":1,"depth":125,"w":{"0":-2.5286892306632653,"1":-9.26919487240279e-54,"2":1.106170064602906,"3":-1.2856682821514498,"4":-1.0488329632285265e-53,"5":1.0056876048917296,"6":-0.6401233513964993,"7":1.4979867561039876e-53,"8":0.1426302585556707,"9":-0.44866047603861636,"10":-1.1815581481208464e-53,"11":0.968697880769393,"12":-0.7130232553578717,"13":1.1048649709994385e-53,"14":0.7909865681135148,"15":-0.6266027449437405,"16":2.1131670130953895e-54,"17":0.13246100774512473,"18":-1.442435351240867,"19":2.780922063434491e-54,"20":1.6120990335890386,"21":0.4959691174754989,"22":1.2457149697348788e-53,"23":0.1922455285618909,"24":0.616377253033654,"25":-1.1529805369895767e-53,"26":0.12190482435258218,"27":0.6944810133261005,"28":-1.796691564208e-54,"29":0.12573107641208028,"30":0.5238803879497762,"31":-4.3200104665394755e-54,"32":-0.10579134774020803,"33":0.3439856573246447,"34":1.4360737854097674e-53,"35":-0.8796168929987095,"36":-0.19812448798738594,"37":-1.308103139934928e-53,"38":0.5913990989065484,"39":-0.3273690007444921,"40":1.525025395823832e-53,"41":0.5861883903636242,"42":-0.36662158555125895,"43":-1.2843492629837658e-53,"44":0.5718935037495393,"45":-0.24942654170522865,"46":3.588572767658716e-54,"47":0.5959596033417881,"48":-0.24748860983381638,"49":2.350854743578282e-53,"50":0.8307977567024881,"51":-1.350013828313749,"52":-7.67572056432044e-54,"53":0.4181781235177437,"54":0.14893741236684227,"55":-1.8760587364041802e-54,"56":-0.7466407503067226,"57":-0.12969784920296348,"58":-0.7484385915422782,"59":-1.1590478278357693e-53,"60":0.38945128509891613,"61":0.12518411429663776,"62":6.439568445211554e-54,"63":0.37108664967446975,"64":0.399957123521103,"65":9.614950083924107e-55,"66":0.0012185027301862064,"67":0.22959573769741853,"68":-3.365802090476266e-54,"69":0.9253742157348865,"70":0.37497900937107287,"71":4.717256497148105e-54,"72":0.5122076883165622,"73":0.035874065904321996,"74":1.084329770760417e-53,"75":-0.05739608019568925,"76":-0.8966782880753653,"77":-7.929155977251689e-54,"78":1.1254588706643065,"79":0.28969550549812073,"80":-1.7744034508509483e-53,"81":0.31030531629231556,"82":0.4125777397769728,"83":-2.9942861286579733e-55,"84":0.4761495320948159,"85":0.6316239079857153,"86":-2.577349315079085e-54,"87":0.575673016698509,"88":0.4251055257588243,"89":-2.6840594470208807e-54,"90":0.28479069178001704,"91":0.3726403754770031,"92":-9.5006027220963e-54,"93":-0.6543127665449411,"94":0.505173330124401,"95":2.4161099093748672e-54,"96":0.7139256883632001,"97":0.4307049230075997,"98":-9.304283069474657e-54,"99":0.5671785235661019,"100":0.42764295748020414,"101":-6.633500977525145e-54,"102":0.5864330168536785,"103":0.4911958656538508,"104":8.156688764682655e-54,"105":0.4683087043984189,"106":0.5143810970981316,"107":-2.0300785480822327e-53,"108":0.7294627370052037,"109":-1.1495699539008553,"110":-1.0509362866199696e-53,"111":0.6779315800462855,"112":0.4892793508940598,"113":-7.141650997940019e-54,"114":-0.480485003970538,"115":0.5096555314569384,"116":-0.2174292477178358,"117":-0.2297040177464073,"118":-0.21348336861098935,"119":-0.2582939736182487,"120":-0.3675921612454593,"121":-0.23760487576082534,"122":-0.26822271369199063,"123":-0.289117875714125,"124":-0.273240602093114}},{"sx":1,"sy":1,"depth":125,"w":{"0":-0.3760859435649464,"1":-7.511414766556144e-54,"2":0.4003762988556486,"3":-0.2969106582524766,"4":2.0531134772858908e-54,"5":-0.0889744185151948,"6":-0.06408442951795518,"7":1.8578557707331794e-54,"8":-0.820848933613757,"9":-0.2171675293017397,"10":7.867686918541303e-54,"11":-0.5983108145645184,"12":-0.2130154097062782,"13":-7.739507191438484e-54,"14":0.06654792743420962,"15":-0.4620731489133442,"16":-7.795799143539003e-54,"17":-0.061659145979483965,"18":-0.9659934148344425,"19":-7.524872797966473e-54,"20":0.2627820945759415,"21":-0.11037965096365304,"22":-4.2263291890984753e-54,"23":-0.03036869574426496,"24":-0.4415959917556919,"25":1.5468871039879236e-53,"26":-0.2877745928151361,"27":-0.12953022343086304,"28":7.4476767657388e-54,"29":-0.9874271341312539,"30":-0.16272571142342146,"31":-1.0206247029537662e-53,"32":-0.36675497105390237,"33":0.18994701101228317,"34":-4.36211441041531e-54,"35":-0.26184441749202053,"36":-0.8512439858094663,"37":4.452526793817838e-54,"38":-0.5672880373087618,"39":-0.2964642373121857,"40":-5.1495262458079127e-54,"41":-1.1473801989650076,"42":-0.38400108065396577,"43":9.06619524976481e-54,"44":-0.914549443365433,"45":-0.507397508755175,"46":2.2145007627715836e-54,"47":-0.4150464398199148,"48":-0.5622286817605906,"49":-6.987314741976872e-54,"50":-0.1785954318562514,"51":0.29576363088982777,"52":7.434614280240324e-54,"53":-0.41671342688492663,"54":-0.44844841391672935,"55":4.429475355539396e-54,"56":0.027112093182374692,"57":-0.26478992710573257,"58":-0.6148049416101061,"59":7.314927237362398e-54,"60":0.5961766789626649,"61":-0.7935739567160681,"62":-2.855761375866765e-54,"63":-0.023052180763536607,"64":-0.7504546395654093,"65":-1.0035287473147655e-53,"66":0.016723786815053147,"67":-0.9640619138286918,"68":-3.927695072077157e-54,"69":-0.19222651982286254,"70":-0.7922717867165247,"71":-7.945881228731728e-54,"72":0.21229822534760287,"73":-1.0453416198297354,"74":2.026509023366256e-54,"75":-0.26460065419754947,"76":-1.3631711852010768,"77":4.4945271723454917e-54,"78":0.10012565269678486,"79":-0.3404590454476903,"80":-3.198453881895518e-54,"81":0.23816534264382258,"82":-0.3889901105748868,"83":-1.1342531211459594e-53,"84":-0.28354184736723514,"85":-0.3364883721651386,"86":6.039619440919587e-55,"87":-0.08451764807327405,"88":-0.223181975378385,"89":-7.365843702720041e-54,"90":-0.36311661354839175,"91":0.2747228981109532,"92":-3.765854042419866e-54,"93":-1.2685279458750816,"94":-1.3875509544692513,"95":-1.0813208079607705e-53,"96":-0.9595584911241253,"97":-1.209677732155301,"98":-6.880805311763187e-54,"99":-0.7730173805785702,"100":-1.2238417148854746,"101":-5.666828583681415e-54,"102":-0.6563036506905321,"103":-1.3203493769829087,"104":5.312251635557003e-54,"105":-0.5210208603939159,"106":-1.0016498522182689,"107":-1.178187956467594e-54,"108":-0.17861976658803885,"109":-0.25345912065163195,"110":1.3881726963095891e-53,"111":0.3042961173105154,"112":-0.29687818644598224,"113":-1.5627258969722562e-54,"114":-0.1555030851982077,"115":-0.4946616866065665,"116":1.41289231642058e-48,"117":2.6092145109263456e-48,"118":1.594247345925421e-48,"119":2.4067231777080033e-35,"120":1.616386826723436e-48,"121":0.5658306539955149,"122":1.3191263303932694e-48,"123":4.513594495148907e-49,"124":5.469921596621684e-39}},{"sx":1,"sy":1,"depth":125,"w":{"0":-0.5444954929121847,"1":-4.780679990658554e-54,"2":-0.5632578952714008,"3":-0.22743419681098706,"4":4.6450103798600354e-54,"5":-1.2656419987503036,"6":0.41005866591083456,"7":2.508767309601204e-53,"8":-0.8520759556531312,"9":-0.18303744863091506,"10":-3.51898348940614e-54,"11":0.9518996820838753,"12":-0.42468455670877303,"13":-1.0739143329499639e-53,"14":-0.7786834676196602,"15":-1.0895173252510861,"16":1.9712590490191596e-53,"17":-1.4623276914284298,"18":-1.3415740564606502,"19":9.373242981188704e-54,"20":-0.4862209353430878,"21":-0.36539628077565656,"22":1.7723733512569205e-54,"23":-0.4769191750251708,"24":-1.1826842042276744,"25":2.7742618892989054e-54,"26":0.5740448462913491,"27":-0.5623189620573215,"28":-6.717306122886945e-54,"29":-1.513466237699325,"30":-1.3313845054547715,"31":-1.0174635002559278e-53,"32":0.9067068782046444,"33":-0.749077676303567,"34":2.674721464639977e-54,"35":0.3684241765511317,"36":0.6035515563021784,"37":1.5709305481659333e-53,"38":-1.6748698840242928,"39":-0.7560056367040214,"40":4.107101696087469e-54,"41":-1.3262923541073839,"42":-1.252206764658881,"43":4.9878167133905864e-54,"44":-0.8634179451250197,"45":-1.1860749939874615,"46":-2.3832319219649614e-54,"47":-1.3611417976967806,"48":-1.221694844190457,"49":-2.347712732027113e-53,"50":-4.227566032436959,"51":0.7810868664609422,"52":5.547234859975317e-54,"53":-1.3573757483588995,"54":-1.063403472535164,"55":5.419444603415949e-54,"56":-0.18462750918736182,"57":-0.3591720760266601,"58":-0.5417214434099995,"59":2.130878788925348e-54,"60":0.2132770261830205,"61":-0.03607517285323343,"62":-1.203692450814724e-53,"63":-0.49483268263895025,"64":-0.07756780001891608,"65":4.3724162462111496e-54,"66":-0.23673915022665762,"67":-0.30397354041720503,"68":-6.214510371029158e-54,"69":0.6973375992010372,"70":-0.9966428768930847,"71":8.596647065919014e-54,"72":-1.239361853397154,"73":-1.2717670348522678,"74":-3.515067871317471e-54,"75":-0.021765256372823782,"76":-1.8186274675908136,"77":-2.285837326066033e-54,"78":1.4222094395563543,"79":-0.7740004303299093,"80":-1.4844452685475008e-53,"81":0.28811553878777485,"82":-0.7034858791580917,"83":-6.434331804961746e-54,"84":0.4942341835950455,"85":-0.6729039720788069,"86":2.315865063026602e-53,"87":-0.1554458595541118,"88":-1.0872959623815848,"89":1.0447575891890084e-53,"90":-0.671084322624349,"91":-0.7867235893837744,"92":6.94538122593732e-55,"93":0.48298864741710756,"94":0.5088524533898383,"95":-7.951495156540182e-54,"96":-0.6905717149829568,"97":-0.38768597270363236,"98":3.40875773600537e-54,"99":0.028825506110795932,"100":-1.0372614738906945,"101":1.549307525379783e-53,"102":0.4142295140068159,"103":-0.7770825907825875,"104":-3.6696030783926884e-54,"105":0.49818990298403804,"106":-0.3133366346310419,"107":6.001867108489064e-54,"108":-1.4354210404753507,"109":0.15039399252906385,"110":1.3885639796514653e-53,"111":-0.9690403134978652,"112":0.3048015092936071,"113":-7.443186842890048e-54,"114":-0.43830426400334577,"115":-0.5189905715972751,"116":0.6969533514115851,"117":0.4762522016968533,"118":0.7531143765636282,"119":6.948863575883003e-13,"120":0.7532384329815626,"121":0.6369850568444456,"122":0.000005766995873740422,"123":0.7737769229474274,"124":0.6254499564119156}},{"sx":1,"sy":1,"depth":125,"w":{"0":1.7000748455935422,"1":-5.689095474079106e-54,"2":0.49766340039621837,"3":1.0330869599125283,"4":2.72029195867775e-54,"5":0.12651439751723237,"6":0.62564207730729,"7":-1.907668310622865e-53,"8":0.16316907983590784,"9":-0.17834499872680082,"10":-3.544637642549343e-54,"11":0.7841049668059695,"12":-0.3383628544690112,"13":1.732080691815495e-54,"14":0.2744805577101508,"15":1.573816152972215,"16":1.2879185703345966e-53,"17":0.888505800628337,"18":0.8850781894094324,"19":1.6530805911620787e-53,"20":1.2432641893117453,"21":-1.0189030614344161,"22":-2.5784236685672808e-54,"23":0.4357091473467939,"24":-0.5117467244064801,"25":-6.697543743914017e-54,"26":0.9691864988884883,"27":-0.8186155446564698,"28":-1.616776024623862e-53,"29":-0.5517381252205026,"30":-0.6729202453655082,"31":-9.3091759718118e-54,"32":-0.7518915786633422,"33":-1.0365485638239667,"34":3.5160788691719664e-54,"35":-1.3944316676287447,"36":0.10901391056184068,"37":-8.769492138290202e-55,"38":-0.8053111138421266,"39":0.2827972914412153,"40":-4.183220219045774e-55,"41":-0.860456772755919,"42":0.4687809278355174,"43":1.2157794108598776e-53,"44":-0.6312072030285747,"45":0.4216542126146913,"46":-1.248069127888381e-53,"47":-0.5346001103603373,"48":-0.2704328443137247,"49":9.83089868156863e-54,"50":0.25667747361725596,"51":2.3305407873517994,"52":-1.0790655551684353e-53,"53":-0.8696701561312303,"54":3.794831334738142,"55":-1.6900990999738208e-53,"56":-0.5902178438408705,"57":1.2962846589412282,"58":0.8963200497515119,"59":2.013463756318919e-54,"60":0.46850692961403273,"61":0.11574648240342156,"62":-4.299984463652265e-54,"63":0.19547714686478593,"64":0.02558124480965044,"65":-1.320028190440042e-53,"66":-0.2873239261892667,"67":-0.39930474070618055,"68":9.204685458343746e-54,"69":0.12108784842274264,"70":-0.709626309532922,"71":5.479994930530483e-54,"72":-0.07416943036692766,"73":-0.5213173642840644,"74":-6.54599058759142e-55,"75":0.5666804859011271,"76":-0.2698940199905743,"77":1.6039939699284837e-54,"78":0.7438923651735281,"79":-1.1711464705493249,"80":3.0697268346291226e-54,"81":-0.11304439497739584,"82":-0.8477738785790894,"83":-9.057231509884847e-54,"84":0.04311033108603026,"85":-0.5011769048627797,"86":-3.887811161175131e-54,"87":-0.7641655084745651,"88":-0.17652180517638782,"89":-2.720848306909029e-54,"90":-1.3614228683520466,"91":-0.8334479249041121,"92":-2.2931885691193955e-54,"93":-0.5049465037290584,"94":-0.09872578945959258,"95":-4.3677354738788887e-54,"96":-1.2008071693731484,"97":-0.28362627546233665,"98":-4.144795576741436e-54,"99":-0.15905807692281707,"100":-0.35562929955815153,"101":2.2637330195253395e-54,"102":-0.08011387353036895,"103":0.042947898190564784,"104":1.1119844883882583e-54,"105":0.0899488048387686,"106":-0.26115475902659874,"107":-9.889355593083294e-54,"108":0.00521276137924021,"109":1.9265520341433748,"110":3.501309825436868e-55,"111":-0.397867641716905,"112":2.0503048872447116,"113":-1.0760783569852003e-53,"114":-0.5183238046115495,"115":0.34893293883091,"116":-0.044064623191601766,"117":0.03964814444736781,"118":-0.07789150177197154,"119":-0.06885493050445375,"120":-0.045744504948635946,"121":0.007686437888500672,"122":-0.09782054804209195,"123":0.002511421561799847,"124":-0.03919081578884401}},{"sx":1,"sy":1,"depth":125,"w":{"0":-1.4069526606551628,"1":-1.256049199523275e-53,"2":0.6754248899336539,"3":-2.217829952092901,"4":1.446083829724528e-55,"5":0.6883218725749716,"6":-0.8816564143237102,"7":1.0128974539564809e-54,"8":1.0772997320829436,"9":-0.5158765334016971,"10":4.6780756892715226e-54,"11":-1.9647721160582041,"12":-0.5464047520125073,"13":-6.812483551333221e-54,"14":0.2358238282266687,"15":-2.5646279243160706,"16":-7.748008760319883e-54,"17":-0.020652643052383804,"18":-3.1551711671285925,"19":1.3625276629095995e-53,"20":0.5731779396001955,"21":0.2244521992402897,"22":-1.9952096006040152e-54,"23":0.2416644905269637,"24":-0.20481175997048937,"25":1.3967166655072386e-54,"26":-0.40123163738845524,"27":-0.1116932204332934,"28":5.521710755232361e-54,"29":-0.1484668345806239,"30":-0.04785138819708204,"31":3.224643465007894e-54,"32":-0.1374587958224764,"33":0.6546871023787946,"34":-1.2394362269870256e-54,"35":0.17869252363515428,"36":-0.5270148253819692,"37":-1.0277576211889111e-53,"38":-0.8635605552035485,"39":-0.3616896644326908,"40":1.4655228756964176e-53,"41":-0.25593669508760397,"42":-0.23376944638304176,"43":1.4275132812834587e-53,"44":-0.6836073325169653,"45":-0.37843449399319684,"46":-4.4628987564710226e-55,"47":0.025181752960625456,"48":-0.7670257335617858,"49":-3.5675626143468904e-54,"50":0.12168839951642875,"51":-0.6960241871168972,"52":-2.5466018294185603e-53,"53":0.13413254075809325,"54":-2.148377227802299,"55":6.310664019133866e-54,"56":-0.19752101197223643,"57":-1.0036656227547653,"58":-0.17972623045866878,"59":-5.800980853846463e-54,"60":0.412855949707995,"61":-0.894959844656651,"62":1.587294328461597e-54,"63":0.39347863226234353,"64":-0.4214974682086877,"65":6.403589439824104e-54,"66":0.19968228188070888,"67":-0.4431392757951197,"68":2.455309720732447e-53,"69":0.10532717427921116,"70":-0.5849088456478502,"71":-6.539288969217414e-54,"72":-0.027312204872043406,"73":-1.0049855239216419,"74":4.3282275590403565e-54,"75":0.037373722642732414,"76":-1.378644043460986,"77":-3.7508599303696288e-56,"78":0.80756243715373,"79":-0.05258720627612561,"80":-1.7843268942915076e-53,"81":0.05252908554572198,"82":-0.1978911803663904,"83":1.2605697632302635e-53,"84":-0.18463159273995502,"85":-0.3216281517092442,"86":-4.652820432510401e-54,"87":0.31237483869401145,"88":-0.24963196027633325,"89":-8.664290460752816e-54,"90":0.07815762339635023,"91":0.5627834964079266,"92":4.556740490672086e-54,"93":-0.1200657668086805,"94":-0.36824302935381087,"95":-2.2716930709558867e-54,"96":0.11346788061310799,"97":-0.10118937161827703,"98":-6.066848152119093e-54,"99":0.07130962055343304,"100":-0.2055947140464379,"101":-3.6360611252682536e-54,"102":-0.16326602772531534,"103":-0.24411420521294172,"104":7.444312617155374e-55,"105":0.16647794930409035,"106":-0.29315703344077215,"107":7.796393613891014e-54,"108":0.4310986007843667,"109":-0.26733218015774174,"110":1.1299285800425727e-53,"111":-0.34636370330600946,"112":-0.9511803146196941,"113":1.69668511355708e-53,"114":-0.7378651600593684,"115":0.8565978559148082,"116":0.2864813608021775,"117":8.016007783412185e-25,"118":0.289636516684632,"119":0.00002519237139462605,"120":0.28237925814448306,"121":0.06938918336740425,"122":0.29126648372561703,"123":0.2907457147861224,"124":0.3051254435752717}},{"sx":1,"sy":1,"depth":125,"w":{"0":-0.19609285276488203,"1":1.5913457105582889e-53,"2":-1.3007084350923463,"3":-0.7848386476746168,"4":7.015480217720372e-54,"5":-0.9657717183466425,"6":-0.31002337835487004,"7":-1.5578078965372608e-54,"8":1.1658644613476228,"9":0.2908393537279847,"10":-1.4429993413237998e-53,"11":0.011871507133600929,"12":0.5556778699692732,"13":1.7705531375289515e-54,"14":-0.252741505334744,"15":0.26147559300445355,"16":1.7523833779155493e-54,"17":-1.92458768266659,"18":2.178606987385645,"19":7.449424004484617e-54,"20":-2.0669203087729793,"21":-0.7110821709089897,"22":9.143346916914052e-54,"23":0.3408951952568775,"24":-0.48882930320430007,"25":1.3912959658636271e-53,"26":0.0691987395762983,"27":-0.15591352254991397,"28":4.2002970470724537e-54,"29":0.3574163184902906,"30":-0.49274866541332707,"31":6.139432215104304e-54,"32":0.558413130507561,"33":2.1451525127876367,"34":8.00722236337329e-54,"35":-1.1598099616535444,"36":-0.34128447797677636,"37":5.307542833931052e-54,"38":1.6778609028642633,"39":0.7371908774884491,"40":5.7501542377632146e-55,"41":-0.603451690243549,"42":0.5282672952945944,"43":5.57469778247388e-54,"44":-1.0055854471964165,"45":0.48511160542677934,"46":-8.750833800048911e-55,"47":-1.352322685943742,"48":0.1648086338427784,"49":-5.61169347220964e-54,"50":-0.8972329300160575,"51":0.10487038799549665,"52":-9.261869635967059e-55,"53":1.2608371971554886,"54":-0.7562403640800905,"55":-1.7498617820731108e-54,"56":-0.13561312794843172,"57":-1.003384591739293,"58":0.014228433932739513,"59":8.65411830186554e-54,"60":-0.8256676654863319,"61":0.059118652585042085,"62":-5.1876817163498206e-54,"63":-0.570368764698815,"64":-0.15295540288109757,"65":-1.0059710502198051e-53,"66":0.030359993619054684,"67":-0.14771580796312447,"68":6.242330934244436e-54,"69":0.3285972503383705,"70":0.042191172791212615,"71":8.914472508604436e-54,"72":0.29634468170792794,"73":0.39770309175803914,"74":1.6762622236796182e-54,"75":-0.29687495175430434,"76":1.089534860261522,"77":5.319170808279805e-54,"78":-0.18844207935945959,"79":-1.1813573657168825,"80":-6.920214259931625e-54,"81":0.6329384500886808,"82":-0.13132865933224547,"83":1.3884648068660986e-54,"84":-0.08044789709737353,"85":-0.17667043421632622,"86":-5.861303397428431e-54,"87":1.2344550811134551,"88":-0.542230805679521,"89":-3.8228350266544474e-54,"90":0.06334304150908102,"91":1.9326908901467368,"92":8.554438264821287e-54,"93":-0.48038556540687993,"94":-0.13268299220531546,"95":2.3049853828106397e-54,"96":-0.021934309839435128,"97":0.2703600934219259,"98":8.820094034268387e-54,"99":-0.05633790822050748,"100":-0.25171578646010623,"101":4.286363580096167e-54,"102":-0.3793943820871168,"103":-0.2294003608009771,"104":-8.854925389025832e-54,"105":-0.8921141047430244,"106":-0.10899326009476676,"107":9.781615409885802e-54,"108":-0.7378945990994222,"109":-2.304818530124765,"110":-4.870531586526923e-54,"111":0.14668760048793766,"112":0.8813845983968919,"113":-3.369244146098855e-54,"114":-0.10111435053022731,"115":0.5647226915009176,"116":0.1810991908130144,"117":0.1323145871488259,"118":0.15921754890168197,"119":0.13510118863225148,"120":0.17174541458876486,"121":0.20483946915022033,"122":0.16178086084848484,"123":0.16415726323822952,"124":0.213872344882221}},{"sx":1,"sy":1,"depth":125,"w":{"0":1.728888123242196,"1":-1.4502336692410998e-53,"2":-0.2861333577366775,"3":1.4001981093464244,"4":-1.1298685857475902e-53,"5":0.05506940955967191,"6":1.6815509722288131,"7":-6.932995169880296e-54,"8":-2.175751066950448,"9":0.41038053624629517,"10":-4.969133847630559e-55,"11":-0.27283896845057387,"12":-0.3507771307401718,"13":-9.657593667014007e-54,"14":0.4443180726011824,"15":-1.7361551533109438,"16":-4.351657325983597e-54,"17":-0.018482892623656832,"18":-3.705034964936651,"19":3.9303036489097915e-54,"20":1.562146517794332,"21":-0.16384510393707466,"22":-8.59351277138635e-54,"23":-0.04020643506722181,"24":0.5012335156179111,"25":6.333673888963953e-54,"26":0.22031411353399882,"27":0.08421817209042019,"28":-6.204715325576396e-54,"29":-0.6419277797459255,"30":0.17922768968611114,"31":6.341298696484351e-54,"32":-1.6728058448136334,"33":-0.11061323921445998,"34":-1.8261295546914156e-53,"35":-0.3613935498102443,"36":1.0640460969576895,"37":1.5310897754453458e-54,"38":0.5226700000843069,"39":0.4362322935904156,"40":1.0154254999836806e-53,"41":1.1007650857176416,"42":0.5230480053800551,"43":4.6446713708127156e-54,"44":0.7204124592890477,"45":-0.036172956992222796,"46":-6.618138886806933e-54,"47":0.6477380716994326,"48":-1.1629132190380838,"49":1.5390981960924214e-55,"50":0.7189131869539579,"51":0.5287418728253203,"52":-1.2872072777120078e-53,"53":-0.7089575415824428,"54":1.64287968417422,"55":-4.118402004449669e-54,"56":0.20229239971275176,"57":1.2508400881128772,"58":0.6243254974095772,"59":-4.757375421855671e-54,"60":-0.2117073971675984,"61":0.11684534322825064,"62":-4.65587638946143e-54,"63":0.03444300343443979,"64":0.3228508599694335,"65":-9.264284776946295e-54,"66":-0.9569148921963839,"67":0.2628888888703913,"68":-1.2120615868533977e-54,"69":0.6579249186642399,"70":-0.6423203955622406,"71":1.495907720745172e-53,"72":-0.009199883901982602,"73":-1.2853957090178616,"74":-2.958244931020825e-54,"75":-0.06711614598733737,"76":-2.6593143839768145,"77":1.1412362514394467e-53,"78":-0.00985586359377754,"79":-0.21637299490484546,"80":6.367491076152123e-54,"81":0.5507333105847527,"82":0.038662930574957406,"83":1.9671570012269928e-54,"84":0.0737751823964571,"85":0.15375480778780679,"86":-2.069832827856527e-53,"87":-0.07859849343372095,"88":0.22963162052089112,"89":-1.1350119847676813e-53,"90":-0.2615228723459621,"91":0.42961253657834136,"92":-1.4463682467838212e-53,"93":0.13903638038008248,"94":0.17864707223354154,"95":1.5261938203908496e-53,"96":-0.29901556941932184,"97":-0.3612018816688708,"98":7.690444010457104e-54,"99":0.24694667934270673,"100":-0.07097626348797541,"101":2.0268907160507156e-53,"102":0.3032200686747472,"103":-0.2627319355428546,"104":-6.621521466224652e-54,"105":0.3970668416507583,"106":-0.6580011493116925,"107":-4.7727474143440007e-54,"108":0.5351494695215847,"109":1.3423116542234252,"110":1.3264386616840202e-53,"111":-0.5092808908473038,"112":1.4120014216452728,"113":-1.595184271962711e-53,"114":-0.06009406165616924,"115":-0.3763749493663993,"116":-0.06489516066332204,"117":-0.26761088609700917,"118":-0.09113561267485694,"119":-0.07432924966144862,"120":-0.16111816542298588,"121":-0.12435261220063754,"122":-0.03962726897563413,"123":-0.19027923007730063,"124":-0.05828694280484125}},{"sx":1,"sy":1,"depth":125,"w":{"0":-0.03547119491839567,"1":6.108472633612802e-54,"2":-0.7438632469936218,"3":0.5628637896882246,"4":1.44241848019161e-53,"5":-0.5927618948543942,"6":0.6389085239941288,"7":1.199335251726953e-54,"8":-1.1400145050982637,"9":0.668489427612237,"10":-4.615104394002471e-54,"11":0.9451012299951764,"12":0.3436566941297375,"13":2.4504697349031754e-54,"14":-0.8713902843500173,"15":-0.4532688922418076,"16":1.0416424633704754e-53,"17":-0.8891631918210554,"18":-1.0238638083646516,"19":2.1698729590958293e-53,"20":-0.5682009344824512,"21":1.6781246253024542,"22":-1.2440113655278602e-53,"23":-1.5527388767702295,"24":-0.0625448930567174,"25":2.0773525513992528e-55,"26":-0.8107515627472295,"27":-0.10813224325991924,"28":-8.415822897844231e-54,"29":0.921581300677787,"30":-0.3494384573859809,"31":2.861135058088736e-54,"32":0.8474337758874372,"33":0.29757143211115633,"34":-2.857645070475767e-55,"35":0.24250081590786662,"36":1.1870556307063973,"37":1.3582378310931817e-53,"38":0.527838255353155,"39":0.9625429378838259,"40":-6.946163737067279e-54,"41":0.2843711182108583,"42":0.5270141058856413,"43":3.4672140877570104e-54,"44":-0.371816523162561,"45":0.4859910231052467,"46":1.567134654140861e-54,"47":-0.7415947467322179,"48":1.2112577164730942,"49":-1.0675834786323049e-53,"50":-0.9899226160921906,"51":-3.335024284475584,"52":3.360934491585982e-54,"53":0.13939498259814645,"54":-1.2219514988122595,"55":7.343795355686434e-54,"56":-0.7482934785899853,"57":-0.7128936163060235,"58":-0.7346187395209428,"59":8.779615839941378e-55,"60":-0.2607910337188041,"61":-0.4836997616684608,"62":3.575975776482759e-54,"63":0.07338811225778157,"64":-0.21973750205070064,"65":2.0012912153037923e-54,"66":-0.4155057740787068,"67":-0.5875600049203993,"68":2.0077859105150019e-53,"69":1.0296233935672297,"70":-0.05473230259195608,"71":1.319406421314324e-53,"72":-0.39319795257845686,"73":0.26464297030063233,"74":-1.6173485400398905e-53,"75":-0.12028836796394157,"76":-0.30239310499305827,"77":2.783363603882218e-54,"78":0.33772654334987623,"79":1.8407412474079627,"80":-1.37015530258393e-53,"81":-0.6226392549995263,"82":0.1743269508263027,"83":-1.420287930206573e-53,"84":-0.8180099643171862,"85":-0.3643179248034367,"86":-9.022613511717108e-54,"87":0.7988510451160179,"88":-0.2710809404766512,"89":-1.7714072179362961e-54,"90":1.0355120550390697,"91":-0.3891082968012511,"92":9.145471179775153e-54,"93":-0.4455457119263445,"94":0.45504247658998254,"95":1.291353350843512e-53,"96":0.06775986476473524,"97":0.16918924740918675,"98":-7.87693245111822e-54,"99":-0.08169375621508625,"100":0.191520726308759,"101":8.633945961928913e-54,"102":-0.4968298193458058,"103":0.1677402341073759,"104":-3.827351493449792e-54,"105":-0.7127208980235101,"106":0.4630949491272921,"107":-5.749890859321501e-54,"108":-0.5724333401434657,"109":-1.9750681826331942,"110":1.5233064176042452e-53,"111":-0.388375561620144,"112":-0.36003240337118725,"113":7.041831941634707e-54,"114":-0.30637947500172996,"115":-0.5135857677473993,"116":0.23136193042048628,"117":0.3274188875442939,"118":0.22686778930473925,"119":0.19602416346446924,"120":0.2441519907139139,"121":0.27243304980450933,"122":0.20695539120827622,"123":0.20483183850116482,"124":0.23660426134574028}},{"sx":1,"sy":1,"depth":125,"w":{"0":0.28816976888226453,"1":-6.590740784451275e-54,"2":1.5454744797600424,"3":-0.5048391961947567,"4":-1.8565300904450968e-53,"5":0.9413510534303008,"6":0.2629839029807826,"7":-2.3160496717928198e-54,"8":-0.4419990869714485,"9":0.5828393372931042,"10":-3.1867920291123237e-54,"11":-0.8098279898806737,"12":0.01866463834785306,"13":-1.3349768330135762e-54,"14":-0.6625605433551524,"15":-0.27425027949385666,"16":1.5390911538680776e-53,"17":-0.5187078774004241,"18":-1.8810466071602674,"19":1.1666837910868256e-54,"20":-0.24863908551324154,"21":-0.9674512531976891,"22":3.8360757481704706e-54,"23":0.06392014033094452,"24":0.1154258752862093,"25":-7.753076777077217e-54,"26":0.15525903301428726,"27":0.774802878816755,"28":1.1448306066981116e-53,"29":-0.6040870551734948,"30":0.6131003433315468,"31":1.622827367982394e-54,"32":-0.6105569440562867,"33":0.6183013915942497,"34":-6.129956164830537e-54,"35":0.07207704679267768,"36":-2.320687441039457,"37":-8.244516321525187e-54,"38":0.42515733035306374,"39":-1.3455761570215572,"40":7.268354970774674e-54,"41":0.5611748616551819,"42":-0.9053515120078446,"43":2.0733561885775012e-53,"44":0.6149866258449339,"45":-0.20899905887364537,"46":-5.1909870730491146e-54,"47":0.4074792432084239,"48":0.5880533319943618,"49":-4.104211746690003e-54,"50":-1.0625091886374223,"51":-3.03676882156849,"52":-4.2467595789428576e-55,"53":-0.9725518959636826,"54":0.3348645718132695,"55":-1.612926269070771e-54,"56":0.6766699011442502,"57":-0.046986269918226374,"58":0.5699405983723421,"59":-8.556929934531339e-54,"60":0.3501027622076158,"61":0.2764510482419858,"62":2.952414345785733e-54,"63":0.0952400285369645,"64":0.0420496911735471,"65":-7.527649662644912e-54,"66":-0.3083067227377887,"67":0.6305763187177291,"68":-1.125690099092785e-53,"69":-0.6729531856488266,"70":0.4248216373349153,"71":-1.895385103969897e-53,"72":-0.017086130643192626,"73":-0.650833443252639,"74":-7.072503789764313e-54,"75":-0.3355699588574709,"76":-2.19776287503094,"77":1.4182960512473502e-53,"78":-0.163135761510226,"79":0.3220949741671245,"80":6.101011128774152e-54,"81":0.0328328318564206,"82":0.3777846374052042,"83":3.57339845106504e-54,"84":-0.40306598752899037,"85":0.7063558685633289,"86":-1.283791584028469e-53,"87":-0.19668017457980713,"88":0.6007255189514236,"89":1.5672284414882486e-53,"90":0.616555734415764,"91":0.6111068143286557,"92":-6.239213974914637e-54,"93":-0.0032497270699503892,"94":-1.498312897283899,"95":-2.1454502932353032e-54,"96":0.32954739196722577,"97":-0.9220975804762995,"98":-8.620153001959519e-54,"99":-0.033314102982214294,"100":-0.5738095015115049,"101":1.324611203392536e-53,"102":-0.06440776988321664,"103":-0.032922924949304606,"104":-4.338841462019684e-54,"105":0.07075896093401808,"106":0.4213869668045484,"107":-6.214703870263594e-55,"108":-0.20226031965888308,"109":-3.3386287595302795,"110":-8.716565150191946e-54,"111":-0.7719103944724245,"112":-1.0010741178106854,"113":2.5615593012269336e-54,"114":0.6394098969635569,"115":0.2598156302801496,"116":0.04971814963478047,"117":0.05128710852019659,"118":0.048414858153952064,"119":0.04356509938909621,"120":0.04298355736175207,"121":0.02963410900944327,"122":0.05364737510514659,"123":0.05867909943231826,"124":0.04644581569701295}},{"sx":1,"sy":1,"depth":125,"w":{"0":-0.27808563563846694,"1":-3.9427899533426865e-54,"2":-1.2018073183553764,"3":0.4075021548860379,"4":8.631985809067058e-54,"5":-0.40502595593876095,"6":-0.13193975249714807,"7":1.1859708672954087e-53,"8":-1.7159973541660376,"9":0.0929081084458332,"10":7.810368117562962e-54,"11":1.7990562918230921,"12":0.6469194175112221,"13":-1.1824281526679897e-53,"14":0.12279020520256338,"15":0.8635552135844023,"16":8.178694082921984e-54,"17":-1.3254678840897116,"18":0.857499077730398,"19":2.726295624285516e-54,"20":-1.798981073033125,"21":-0.4397182897837678,"22":-7.493836363243343e-54,"23":-0.9570067446089702,"24":-0.5814589278001767,"25":7.01958121751608e-54,"26":-0.8446542857168345,"27":-0.3154027099224134,"28":1.16124240483709e-53,"29":0.5039356149634903,"30":0.03214315593616663,"31":-1.7533463569692955e-53,"32":0.9092887031629785,"33":-0.3714268134526498,"34":-7.987118087789235e-54,"35":0.5102306965627859,"36":0.7066893144778829,"37":-2.817512873267305e-54,"38":1.3112624809376283,"39":1.3771069176246904,"40":-5.0585597785543546e-54,"41":-0.3579558818146698,"42":0.6578120917468956,"43":-4.4969405281456725e-54,"44":-0.8619901503771172,"45":0.8003575372990209,"46":-2.121559149574084e-53,"47":-1.0262680998355334,"48":1.4702614857978915,"49":-6.289223668815161e-54,"50":-1.1403162280116084,"51":-2.257958941665656,"52":-1.0232472455775511e-53,"53":0.87436169383037,"54":-0.129495960186913,"55":-1.0032903208764159e-53,"56":0.23773203943465188,"57":0.4613122805265262,"58":-0.327963693027212,"59":7.866262313289063e-54,"60":-0.6295974269614394,"61":-0.1504057348656833,"62":1.340042153763871e-53,"63":0.42064627775553304,"64":-0.390944275924742,"65":1.1396948646813361e-53,"66":0.3819554528916607,"67":-0.5174280378354806,"68":-5.1826366930132125e-54,"69":0.2317406847289212,"70":0.11729119383317092,"71":1.392780223091826e-53,"72":0.44845919807293483,"73":0.28706809612896744,"74":-1.376519825480911e-53,"75":-0.7482156792409579,"76":0.03755944479465994,"77":6.754011502389468e-54,"78":-0.6515710720972852,"79":-0.27395035040807253,"80":2.0516817726356784e-53,"81":-0.4202549896419556,"82":-0.6091278698254862,"83":-1.9267175518570274e-53,"84":0.17866780480943958,"85":-0.23027916153350703,"86":1.3829328644375646e-53,"87":1.1425468610518594,"88":-0.11990010724873006,"89":2.0146881801276062e-53,"90":0.3728348489242561,"91":-0.27485399572856506,"92":-1.085033081161258e-53,"93":0.23934908069746585,"94":-0.0033399486554233555,"95":9.28279299397932e-54,"96":-0.659695155852583,"97":-0.05652484929283036,"98":2.0823767881310368e-53,"99":0.11402093674645895,"100":-0.04262545476379268,"101":-1.3109933567880183e-53,"102":-0.02484661023644714,"103":-0.19674761333736515,"104":-7.680564370479761e-54,"105":-0.5574177007479965,"106":0.1647206094600923,"107":9.408518445559313e-54,"108":-1.7286402362696958,"109":-2.5703244600428077,"110":-4.603389893232299e-54,"111":0.252146387709678,"112":0.33617786886266576,"113":6.677293720529557e-54,"114":-0.16487413975530338,"115":0.8175827570787477,"116":-0.19462723575803767,"117":0.127462215007807,"118":-0.07653669166247146,"119":0.06496970553357798,"120":0.09394702681828189,"121":-0.1300344768252069,"122":-0.08228342383813163,"123":0.03292532632676279,"124":-0.021950356220208453}},{"sx":1,"sy":1,"depth":125,"w":{"0":0.46224828455936773,"1":4.471995768812377e-54,"2":-0.8622302860116264,"3":0.5824105383629017,"4":-8.757941883412617e-54,"5":-0.8816458746891298,"6":-0.00633821130526514,"7":-7.426671706671981e-54,"8":-1.84008472770799,"9":0.3108029869833839,"10":-1.0114919797186453e-53,"11":-1.0826722900196888,"12":0.8214579927199469,"13":-4.655497716719685e-54,"14":-0.9923065069101279,"15":0.4801296080909312,"16":-1.7064420467272442e-54,"17":-1.134053267902232,"18":0.49090510775731583,"19":-9.618854298341909e-55,"20":-1.3584236583661162,"21":-0.8741135510263905,"22":1.0650039222207797e-53,"23":0.2501695126896184,"24":0.12390361446815988,"25":-1.8503575271605692e-54,"26":-0.017797138185856393,"27":-0.10623867272967671,"28":1.1752753929143421e-54,"29":0.6454188298938426,"30":-0.07375061167695711,"31":-2.794215587317802e-54,"32":0.07287781832746888,"33":0.17396203743556948,"34":6.843022128853512e-54,"35":-1.1059307688182087,"36":0.1420528230307236,"37":1.1005154929220425e-53,"38":1.9238639102738535,"39":1.0829902826553097,"40":-1.2662484669323244e-53,"41":1.2665240314854593,"42":0.9026289408282523,"43":-1.3305322140627134e-53,"44":0.4573961908445125,"45":1.118313941801508,"46":1.6200506158548344e-54,"47":0.23304222623421197,"48":1.8943230244611797,"49":-1.2387988979694242e-53,"50":-1.0020506921211887,"51":-3.8606405264139445,"52":6.258963070569439e-54,"53":0.3867857425862934,"54":-2.7234537707042343,"55":1.3824395183445053e-53,"56":0.9053318798300292,"57":0.7954404398966761,"58":-0.2760993764074974,"59":-1.7804019919865436e-53,"60":-0.39304298613907424,"61":-0.07571976421874238,"62":1.543161491536224e-54,"63":-0.11789008739403663,"64":-0.393304656994044,"65":-1.0097031267116923e-54,"66":0.051631738846303774,"67":-0.5286984371237164,"68":-3.2294497505617773e-54,"69":-0.010854447469524327,"70":-0.009462918782084388,"71":-2.3010296658663664e-54,"72":0.0460839467662922,"73":-0.012131919464630915,"74":1.1254022160231123e-53,"75":-0.7086938135400294,"76":-0.29640833534690414,"77":-1.0048059481649356e-53,"78":-0.5497596099203507,"79":-0.10603691846066142,"80":-7.73074505347867e-54,"81":-0.5008324709182318,"82":-0.06199661317607968,"83":4.58945903302918e-54,"84":-0.4459140496958452,"85":-0.06309131751201937,"86":-1.11770119506379e-53,"87":-0.19431784226229312,"88":-0.016578615177970046,"89":5.24642497085092e-54,"90":0.3282908060902973,"91":0.10687667264529292,"92":-8.878798237333803e-54,"93":-0.7309931237226963,"94":-0.08639320974488925,"95":1.2208698734295613e-53,"96":0.6069769675688007,"97":0.4480662788087989,"98":2.488889401041088e-55,"99":0.7452677394279043,"100":0.10293464596883617,"101":1.7839597938035658e-54,"102":0.22570844127775797,"103":0.35404173280673495,"104":1.5545315461703237e-53,"105":0.4912251220175823,"106":0.23194769639158128,"107":-9.2757820218407e-54,"108":-0.38546614766829473,"109":-3.8602722893585564,"110":-8.264512265668837e-54,"111":-0.32014679245895017,"112":-0.7153965834875345,"113":-2.7728053340632395e-54,"114":0.5627694413292842,"115":-0.02701569831862252,"116":-0.0343351793799469,"117":-0.048717201508855695,"118":-0.01446442917131882,"119":-0.038738418497769496,"120":-0.04440356318493128,"121":0.08132774389427118,"122":-0.01697497999349002,"123":0.01072008971403075,"124":-0.013473587909519556}},{"sx":1,"sy":1,"depth":125,"w":{"0":-0.3282807402410396,"1":-3.3706776430963585e-54,"2":0.40228477033301696,"3":-0.6108285174705038,"4":5.871366483665416e-55,"5":-0.3609952214044075,"6":-1.2461202134325227,"7":1.0385133261839737e-53,"8":0.06859722595859961,"9":-1.3756092928159358,"10":-8.971617440958355e-55,"11":0.7170852355108724,"12":-1.2311488310381347,"13":1.4727379295167166e-53,"14":0.3874681427178713,"15":-0.9113026873681901,"16":-2.157269369290287e-53,"17":0.25144095234426433,"18":-0.7951628375241624,"19":3.856188333411634e-54,"20":0.38608460222552227,"21":0.18665445571999287,"22":1.1338192248867843e-53,"23":0.19996297252915726,"24":0.167642774314651,"25":1.096632895299376e-53,"26":1.1825184393304011,"27":0.4458783415998865,"28":1.1070072001126514e-53,"29":-0.014550545561323859,"30":0.3580176852318274,"31":-2.000378097154337e-53,"32":-0.17943447612513522,"33":0.3532654679301859,"34":2.5400942834116003e-55,"35":0.1419305633138662,"36":-0.16849200390222394,"37":1.7751274898159644e-54,"38":-1.3005674230044981,"39":-0.392620866172621,"40":-1.3329584768915067e-53,"41":-0.3550120886871577,"42":-1.3616107701697562,"43":-1.044651883965994e-53,"44":0.13092345133232222,"45":-1.9399337902037215,"46":-1.0250844942329911e-54,"47":0.3901447999285956,"48":-1.66364871850707,"49":-1.0379880636424274e-53,"50":0.494218469546131,"51":1.4915271880368657,"52":-9.129724655109913e-54,"53":-0.16540295234134975,"54":-1.2248191988155852,"55":-1.2288447900071945e-54,"56":0.5154060264006971,"57":1.130643454060833,"58":0.5477259711903734,"59":-3.5936014625401134e-55,"60":0.40809235192908266,"61":0.6074867025609707,"62":-1.9798668411661614e-54,"63":0.061215699911090646,"64":0.2428486140487469,"65":-7.723317607550469e-54,"66":0.2281840658599868,"67":0.2484757840518282,"68":-1.5856823110263574e-53,"69":0.39662692493697166,"70":0.7825948288986259,"71":-5.403120310195348e-54,"72":0.2691234514133209,"73":0.95593855972436,"74":7.607305943356608e-55,"75":0.21002002362948222,"76":0.663004450427872,"77":-1.0473014790656667e-53,"78":0.24262647553701341,"79":-0.31037147960957995,"80":-9.198810961216162e-55,"81":0.6755708351368063,"82":0.1453993974331048,"83":-9.290523658534383e-54,"84":0.3605284013436155,"85":0.359526030935083,"86":-4.8449078482524474e-54,"87":-0.21818484438697955,"88":0.11594637376516571,"89":-7.803982309595253e-54,"90":-0.23868632009617552,"91":0.26311301305934587,"92":3.152512584934506e-55,"93":-0.1223705927354656,"94":0.7924727047598706,"95":1.0811218272465772e-54,"96":-1.2011121550385373,"97":0.9639576881563321,"98":-4.437369584649489e-54,"99":-0.2584835689121592,"100":0.4704487255905803,"101":3.6552642108590127e-54,"102":-0.1773803696810087,"103":0.046995339636358116,"104":8.186144694694787e-54,"105":0.3941752360331752,"106":0.6170020657103762,"107":1.2344406273433238e-53,"108":-0.21920064006540244,"109":0.9329255256331025,"110":-1.097387602748268e-53,"111":0.17401460176191777,"112":-0.6011979343104381,"113":2.0349087602700894e-53,"114":0.27625353858982604,"115":-0.4662981714804086,"116":-0.10959653135034768,"117":-0.09152413800731225,"118":-0.10569605733866194,"119":-0.1155303911073816,"120":-0.09931827256702987,"121":-0.09563973523737034,"122":-0.12325050632036244,"123":-0.09767667397013988,"124":-0.1039728427865227}},{"sx":1,"sy":1,"depth":125,"w":{"0":1.1019920374736862,"1":8.142242406029181e-54,"2":-0.8356390119108043,"3":0.8415008354675173,"4":4.3940722851418176e-54,"5":-0.2555873913706477,"6":0.28657092595142647,"7":1.271585729772064e-53,"8":-0.07366079136666952,"9":-0.6622785800395791,"10":-3.5070142973595926e-54,"11":0.014930467215746862,"12":0.2897549159384883,"13":2.3813482922093164e-55,"14":-0.4944424506935412,"15":0.9128951914551493,"16":-1.661146756473332e-53,"17":0.3985123176325132,"18":0.302969377908266,"19":1.70495126651154e-53,"20":-0.6209658449685498,"21":-0.09037658043197859,"22":-1.2463862343965385e-54,"23":-0.3346125757969286,"24":-0.44609101375347615,"25":-8.283555403763021e-54,"26":-0.20428957862223535,"27":-0.3589127943441169,"28":-9.056423763213712e-56,"29":-0.9930660547031958,"30":0.006213611051598648,"31":2.5740006799835217e-54,"32":0.309031863218057,"33":-0.8489549343015357,"34":2.934005059247821e-54,"35":0.36587637066730444,"36":1.192821152910452,"37":9.085494950307012e-54,"38":-1.0963211291796202,"39":0.19110360551580535,"40":-2.926820434092771e-54,"41":-0.4456777379456656,"42":0.092096768008072,"43":1.0913988435482913e-53,"44":-0.30749422111148095,"45":0.13504093226422942,"46":2.133933627118306e-53,"47":-0.1570753407732239,"48":0.5115650808894097,"49":-4.048660383845171e-54,"50":-0.5179943282804211,"51":3.7042973609727214,"52":7.126956899802863e-55,"53":-0.4887947245633605,"54":2.6627525298516996,"55":-1.2329522824857307e-53,"56":0.04890656516989395,"57":-0.899038925356641,"58":0.949849816507294,"59":-8.348683407344124e-54,"60":-0.7024673486790675,"61":1.044144715132624,"62":-6.529466844502211e-54,"63":-0.4035756343673577,"64":0.7433625917485378,"65":6.077904344266766e-54,"66":0.16735260734596805,"67":-0.36810942392425655,"68":6.348486740386947e-54,"69":-0.38447568106395447,"70":0.2516277912946324,"71":-1.1290212670683041e-53,"72":-0.3461517369169902,"73":1.1509523484990853,"74":4.0775581292149084e-54,"75":-0.3918475867173952,"76":0.8712461562898794,"77":8.793398027112455e-54,"78":-0.44202023900868426,"79":-0.8986074276468777,"80":5.658251346026546e-54,"81":-0.0781566400448241,"82":-0.45968477347665004,"83":-2.841676471376476e-54,"84":-1.0033761714238696,"85":-0.14035965498345354,"86":-2.76015356007848e-53,"87":-1.120004690093716,"88":-0.19708686940942197,"89":6.951527183667867e-54,"90":0.0126543055461075,"91":-0.201456190998627,"92":8.631100712559955e-54,"93":0.00617846427311365,"94":1.0031223954591224,"95":-2.744867683414365e-54,"96":-0.14389976678445185,"97":-0.04055332774148417,"98":7.056026197876402e-54,"99":0.11967226067218044,"100":0.13631913185999228,"101":5.352111883300772e-54,"102":0.2627033339054807,"103":0.18923594838939414,"104":4.25137316305451e-54,"105":0.15394743631027769,"106":0.19058437720395996,"107":-2.277852064409781e-53,"108":0.14570556995459003,"109":3.6407035182125074,"110":-1.4873489486038208e-53,"111":-0.09018760468303849,"112":1.4427831599272927,"113":-1.7052853506808644e-53,"114":0.18341212503672286,"115":0.9844613846417264,"116":-0.06992648049725834,"117":-0.04765333603937632,"118":-0.07409501671365622,"119":-0.06415178161773949,"120":-0.09403003117220739,"121":-0.08306607132452862,"122":-0.06460482338740685,"123":-0.012154755409329256,"124":-0.08673247653572333}},{"sx":1,"sy":1,"depth":125,"w":{"0":-0.13613822209125612,"1":9.263995753516355e-54,"2":0.10776292886655742,"3":-0.6125439378701473,"4":-3.9093393900309343e-54,"5":1.2435843805075677,"6":-0.48896311223335875,"7":-9.30649590920008e-54,"8":0.13524045167911888,"9":0.42801254648674353,"10":3.3890898668698e-56,"11":-0.6114252958592259,"12":-0.2709204219723104,"13":5.809270449057254e-54,"14":-0.2419085960632855,"15":-1.236491053617256,"16":-1.2117235343544276e-53,"17":-0.6252116895028587,"18":-1.0569037507364374,"19":5.0122339375571896e-54,"20":-0.2840655771619709,"21":0.16995671225121609,"22":5.278238323562493e-54,"23":0.4615917152651137,"24":-0.24337917316139862,"25":-2.2338678617029078e-54,"26":0.1369807776920265,"27":0.055008114866414944,"28":1.0086468105157373e-53,"29":0.11946182766002184,"30":-0.09544487952290046,"31":9.144549282790458e-54,"32":0.29884652745001083,"33":0.2558957488435327,"34":1.264332883767263e-53,"35":-0.27138066666919713,"36":-0.7425704849803089,"37":5.506360999067527e-54,"38":0.8673700324017424,"39":0.015416677479671688,"40":1.6368832602474408e-54,"41":-0.0172586479768344,"42":0.3194084767517159,"43":-7.162465772736922e-54,"44":-0.27645933653825044,"45":0.7002841963632039,"46":5.915591614596081e-54,"47":-0.4199252752275874,"48":0.4227171815580292,"49":-1.3523189368699334e-54,"50":-0.5281243426338685,"51":-1.404353245932852,"52":-4.0725162554232346e-54,"53":0.4109490638054744,"54":0.2532017751098076,"55":1.2671735481926531e-54,"56":-1.0214976759522514,"57":-0.970909770438752,"58":-0.6017044260824945,"59":6.579238930833844e-54,"60":0.1039768582953712,"61":-0.42577532760987263,